/* Generated by Edge Impulse
 *
 * Permission is hereby granted, free of charge, to any person obtaining a copy
 * of this software and associated documentation files (the "Software"), to deal
 * in the Software without restriction, including without limitation the rights
 * to use, copy, modify, merge, publish, distribute, sublicense, and/or sell
 * copies of the Software, and to permit persons to whom the Software is
 * furnished to do so, subject to the following conditions:
 *
 * The above copyright notice and this permission notice shall be included in
 * all copies or substantial portions of the Software.
 *
 * THE SOFTWARE IS PROVIDED "AS IS", WITHOUT WARRANTY OF ANY KIND, EXPRESS OR
 * IMPLIED, INCLUDING BUT NOT LIMITED TO THE WARRANTIES OF MERCHANTABILITY,
 * FITNESS FOR A PARTICULAR PURPOSE AND NONINFRINGEMENT. IN NO EVENT SHALL THE
 * AUTHORS OR COPYRIGHT HOLDERS BE LIABLE FOR ANY CLAIM, DAMAGES OR OTHER
 * LIABILITY, WHETHER IN AN ACTION OF CONTRACT, TORT OR OTHERWISE, ARISING FROM,
 * OUT OF OR IN CONNECTION WITH THE SOFTWARE OR THE USE OR OTHER DEALINGS IN THE
 * SOFTWARE.
 */
// Generated on: 03.11.2022 07:26:20

#include <stdio.h>
#include <stdlib.h>
#include "edge-impulse-sdk/tensorflow/lite/c/builtin_op_data.h"
#include "edge-impulse-sdk/tensorflow/lite/c/common.h"
#include "edge-impulse-sdk/tensorflow/lite/micro/micro_mutable_op_resolver.h"
#include "edge-impulse-sdk/porting/ei_classifier_porting.h"

#if EI_CLASSIFIER_PRINT_STATE
#if defined(__cplusplus) && EI_C_LINKAGE == 1
extern "C" {
    extern void ei_printf(const char *format, ...);
}
#else
extern void ei_printf(const char *format, ...);
#endif
#endif

#if defined __GNUC__
#define ALIGN(X) __attribute__((aligned(X)))
#elif defined _MSC_VER
#define ALIGN(X) __declspec(align(X))
#elif defined __TASKING__
#define ALIGN(X) __align(X)
#endif

#ifndef EI_MAX_SCRATCH_BUFFER_COUNT
#define EI_MAX_SCRATCH_BUFFER_COUNT 36
#endif // EI_MAX_SCRATCH_BUFFER_COUNT

#ifndef EI_MAX_OVERFLOW_BUFFER_COUNT
#define EI_MAX_OVERFLOW_BUFFER_COUNT 10
#endif // EI_MAX_OVERFLOW_BUFFER_COUNT

using namespace tflite;
using namespace tflite::ops;
using namespace tflite::ops::micro;

namespace {

constexpr int kTensorArenaSize = 766160;

#if defined(EI_CLASSIFIER_ALLOCATION_STATIC)
uint8_t tensor_arena[kTensorArenaSize] ALIGN(16);
#elif defined(EI_CLASSIFIER_ALLOCATION_STATIC_HIMAX)
#pragma Bss(".tensor_arena")
uint8_t tensor_arena[kTensorArenaSize] ALIGN(16);
#pragma Bss()
#elif defined(EI_CLASSIFIER_ALLOCATION_STATIC_HIMAX_GNU)
uint8_t tensor_arena[kTensorArenaSize] ALIGN(16) __attribute__((section(".tensor_arena")));
#else
#define EI_CLASSIFIER_ALLOCATION_HEAP 1
uint8_t* tensor_arena = NULL;
#endif

static uint8_t* tensor_boundary;
static uint8_t* current_location;

template <int SZ, class T> struct TfArray {
  int sz; T elem[SZ];
};
enum used_operators_e {
  OP_CONV_2D, OP_DEPTHWISE_CONV_2D, OP_PAD, OP_ADD, OP_RESHAPE, OP_FULLY_CONNECTED, OP_SOFTMAX,  OP_LAST
};
struct TensorInfo_t { // subset of TfLiteTensor used for initialization from constant memory
  TfLiteAllocationType allocation_type;
  TfLiteType type;
  void* data;
  TfLiteIntArray* dims;
  size_t bytes;
  TfLiteQuantization quantization;
};
struct NodeInfo_t { // subset of TfLiteNode used for initialization from constant memory
  struct TfLiteIntArray* inputs;
  struct TfLiteIntArray* outputs;
  void* builtin_data;
  used_operators_e used_op_index;
};

TfLiteContext ctx{};
TfLiteTensor tflTensors[178];
TfLiteEvalTensor tflEvalTensors[178];
TfLiteRegistration registrations[OP_LAST];
TfLiteNode tflNodes[69];

const TfArray<4, int> tensor_dimension0 = { 4, { 1,160,160,3 } };
const TfArray<1, float> quant0_scale = { 1, { 0.0039215688593685627, } };
const TfArray<1, int> quant0_zero = { 1, { -128 } };
const TfLiteAffineQuantization quant0 = { (TfLiteFloatArray*)&quant0_scale, (TfLiteIntArray*)&quant0_zero, 0 };
const ALIGN(16) int32_t tensor_data1[4*2] = { 
  0, 0, 
  0, 1, 
  0, 1, 
  0, 0, 
};
const TfArray<2, int> tensor_dimension1 = { 2, { 4,2 } };
const ALIGN(8) int32_t tensor_data2[2] = { -1, 32000, };
const TfArray<1, int> tensor_dimension2 = { 1, { 2 } };
const ALIGN(16) int8_t tensor_data3[16*3*3*3] = { 
  /* [0][0][][] */ 68,126,34, 1,-8,0, 5,4,2, 
  /* [0][1][][] */ 78,127,34, -12,-25,-1, -1,2,1, 
  /* [0][2][][] */ 27,28,11, -6,-7,0, -1,-2,-3, 
  /* [1][0][][] */ 0,0,0, 0,0,0, 0,0,0, 
  /* [1][1][][] */ 0,0,0, 0,0,0, 0,0,0, 
  /* [1][2][][] */ 0,0,0, 0,0,0, 0,0,0, 
  /* [2][0][][] */ 26,54,13, -56,-114,-30, 44,84,23, 
  /* [2][1][][] */ 34,60,15, -74,-127,-32, 56,93,27, 
  /* [2][2][][] */ 10,7,2, -24,-17,-7, 16,10,6, 
  /* [3][0][][] */ 90,-43,-50, 97,-22,-76, 12,16,-29, 
  /* [3][1][][] */ 94,-34,-65, 127,-47,-80, 37,-14,-25, 
  /* [3][2][][] */ 5,8,-17, 28,-18,-12, 23,-21,-4, 
  /* [4][0][][] */ 26,41,8, 25,41,10, 5,6,4, 
  /* [4][1][][] */ -64,-115,-28, -70,-127,-29, -19,-21,-11, 
  /* [4][2][][] */ 40,78,20, 47,85,21, 15,20,8, 
  /* [5][0][][] */ 0,0,0, 0,0,0, 0,0,0, 
  /* [5][1][][] */ 0,0,0, 0,0,0, 0,0,0, 
  /* [5][2][][] */ 0,0,0, 0,0,0, 0,0,0, 
  /* [6][0][][] */ -1,76,-77, -23,57,-35, -31,8,24, 
  /* [6][1][][] */ -76,127,-53, -42,92,-53, 14,-1,-13, 
  /* [6][2][][] */ -53,51,4, -23,41,-20, 29,-6,-23, 
  /* [7][0][][] */ 51,98,28, 69,127,31, 10,20,7, 
  /* [7][1][][] */ 49,73,33, 71,107,34, 12,17,7, 
  /* [7][2][][] */ 5,8,11, 18,20,10, 0,-2,2, 
  /* [8][0][][] */ 127,86,17, -22,-5,21, -32,4,19, 
  /* [8][1][][] */ 88,58,35, -9,11,12, -12,18,-11, 
  /* [8][2][][] */ -30,-20,32, -11,9,0, -10,27,-12, 
  /* [9][0][][] */ 19,-3,18, -29,-26,-7, -106,-127,-77, 
  /* [9][1][][] */ 11,-15,8, -7,2,2, -51,-49,-34, 
  /* [9][2][][] */ -3,5,0, 4,6,6, 4,-17,10, 
  /* [10][0][][] */ 0,0,0, 0,0,0, 0,0,0, 
  /* [10][1][][] */ 0,0,0, 0,0,0, 0,0,0, 
  /* [10][2][][] */ 0,0,0, 0,0,0, 0,0,0, 
  /* [11][0][][] */ 0,0,0, 0,0,0, 0,0,0, 
  /* [11][1][][] */ 0,0,0, 0,0,0, 0,0,0, 
  /* [11][2][][] */ 0,0,0, 0,0,0, 0,0,0, 
  /* [12][0][][] */ -126,-96,-51, -127,-90,-45, -118,-66,6, 
  /* [12][1][][] */ -125,-90,-42, -126,-92,-45, -113,-64,7, 
  /* [12][2][][] */ -125,-83,-37, -127,-84,-38, -119,-62,8, 
  /* [13][0][][] */ -46,-82,-26, -58,-105,-30, -19,-17,-9, 
  /* [13][1][][] */ 78,127,35, 74,122,35, 16,23,11, 
  /* [13][2][][] */ -7,-9,-1, -3,-14,-2, 0,5,1, 
  /* [14][0][][] */ 0,0,0, 0,0,0, 0,0,0, 
  /* [14][1][][] */ 0,0,0, 0,0,0, 0,0,0, 
  /* [14][2][][] */ 0,0,0, 0,0,0, 0,0,0, 
  /* [15][0][][] */ 0,0,0, 0,0,0, 0,0,0, 
  /* [15][1][][] */ 0,0,0, 0,0,0, 0,0,0, 
  /* [15][2][][] */ 0,0,0, 0,0,0, 0,0,0, 
};
const TfArray<4, int> tensor_dimension3 = { 4, { 16,3,3,3 } };
const TfArray<16, float> quant3_scale = { 16, { 0.0057920641265809536, 1.4570449025086418e-07, 0.0095015745609998703, 0.003638687776401639, 0.013525585643947124, 3.6831913519108639e-08, 0.0049958755262196064, 0.0030131160747259855, 0.016197847202420235, 0.020485803484916687, 3.6667552194558084e-07, 2.4600984716016683e-07, 0.00067185336956754327, 0.0095299836248159409, 1.2093291701376074e-08, 5.229495059211331e-07, } };
const TfArray<16, int> quant3_zero = { 16, { 0,0,0,0,0,0,0,0,0,0,0,0,0,0,0,0 } };
const TfLiteAffineQuantization quant3 = { (TfLiteFloatArray*)&quant3_scale, (TfLiteIntArray*)&quant3_zero, 0 };
const ALIGN(16) int32_t tensor_data4[16] = { 130497, 1073741824, 70177, 166162, 50800, -1073741760, 143625, 253602, -70526, -83473, -1073741824, -1073741824, 129194, 72518, 1073741760, -1073741824, };
const TfArray<1, int> tensor_dimension4 = { 1, { 16 } };
const TfArray<16, float> quant4_scale = { 16, { 2.2713978978572413e-05, 5.7139021292229586e-10, 3.7261077522998676e-05, 1.426936432835646e-05, 5.3041516366647556e-05, 1.4443889140292043e-10, 1.9591669115470722e-05, 1.1816142432508059e-05, 6.3520972616970539e-05, 8.0336489190813154e-05, 1.4379433199707137e-09, 9.647445065041893e-10, 2.6347192942921538e-06, 3.7372486985987052e-05, 4.7424675297946806e-11, 2.0507824327609114e-09, } };
const TfArray<16, int> quant4_zero = { 16, { 0,0,0,0,0,0,0,0,0,0,0,0,0,0,0,0 } };
const TfLiteAffineQuantization quant4 = { (TfLiteFloatArray*)&quant4_scale, (TfLiteIntArray*)&quant4_zero, 0 };
const ALIGN(16) int8_t tensor_data5[1*3*3*16] = { 
  /* [0][0][][] */ 13,126,4,5,0,-50,-107,4,-9,-17,39,14,-8,-1,2,36, 17,127,-2,-46,-127,-108,127,-10,5,-2,80,-69,-12,-16,-127,127, 7,70,0,42,10,-127,32,4,-5,-6,107,-55,-49,4,-56,-74, 
  /* [0][1][][] */ 18,79,-127,-54,2,-31,15,0,-11,127,116,-127,-8,-12,-54,48, -127,55,2,-127,1,-53,-3,127,127,0,127,-45,-97,127,13,60, 20,116,1,88,-1,32,-17,-15,-2,5,-81,-9,43,-22,-50,-23, 
  /* [0][2][][] */ 11,24,7,52,1,-114,2,2,-11,-7,95,-88,-10,-1,28,-55, 24,85,-2,82,-1,-110,-32,-19,-16,-10,54,-117,-108,-16,15,-52, 4,80,0,-54,0,-67,-17,6,-13,-7,83,-55,-127,4,-31,-22, 
};
const TfArray<4, int> tensor_dimension5 = { 4, { 1,3,3,16 } };
const TfArray<16, float> quant5_scale = { 16, { 0.010039213113486767, 0.00013807260256726295, 0.0079267593100667, 0.011123530566692352, 0.0074386075139045715, 0.098316408693790436, 0.028958965092897415, 0.0082976650446653366, 0.011078871786594391, 0.0064741638489067554, 0.053986329585313797, 0.27962729334831238, 0.0028565002139657736, 0.0079436153173446655, 0.045049790292978287, 0.1563965231180191, } };
const TfArray<16, int> quant5_zero = { 16, { 0,0,0,0,0,0,0,0,0,0,0,0,0,0,0,0 } };
const TfLiteAffineQuantization quant5 = { (TfLiteFloatArray*)&quant5_scale, (TfLiteIntArray*)&quant5_zero, 3 };
const ALIGN(16) int32_t tensor_data6[16] = { 15585, -92671, 31071, 16649, 31901, -286, 5847, 4066, -1883, -3064, -908, -65, -2166, 8154, -248, -178, };
const TfArray<1, int> tensor_dimension6 = { 1, { 16 } };
const TfArray<16, float> quant6_scale = { 16, { 0.00023621678701601923, 3.2487671433045762e-06, 0.00018651198479346931, 0.00026173013611696661, 0.00017502605624031276, 0.0023133272770792246, 0.00068138743517920375, 0.00019523917580954731, 0.00026067934231832623, 0.00015233327576424927, 0.001270266599021852, 0.0065794656984508038, 6.721176760038361e-05, 0.00018690859724301845, 0.0010599950328469276, 0.0036799183581024408, } };
const TfArray<16, int> quant6_zero = { 16, { 0,0,0,0,0,0,0,0,0,0,0,0,0,0,0,0 } };
const TfLiteAffineQuantization quant6 = { (TfLiteFloatArray*)&quant6_scale, (TfLiteIntArray*)&quant6_zero, 0 };
const ALIGN(16) int8_t tensor_data7[8*1*1*16] = { 
  /* [0][0][][] */ 7,0,-1,127,5,0,-104,-2,14,4,0,0,0,4,0,0, 
  /* [1][0][][] */ -9,0,29,-3,-127,0,-18,-75,-3,-4,0,0,0,-17,0,0, 
  /* [2][0][][] */ 33,0,-127,-1,-48,0,-2,49,31,-56,0,0,-1,49,0,0, 
  /* [3][0][][] */ -127,0,-16,15,14,0,-5,1,30,-59,0,0,0,-96,0,0, 
  /* [4][0][][] */ -42,0,-127,6,10,0,9,-119,-19,38,0,0,0,-15,0,0, 
  /* [5][0][][] */ 10,0,1,127,-4,0,69,0,4,2,0,0,0,-1,0,0, 
  /* [6][0][][] */ -20,0,-2,-1,-58,0,-8,92,-10,40,0,0,0,-127,0,0, 
  /* [7][0][][] */ -127,0,40,21,-13,0,-1,1,0,17,0,0,0,80,0,0, 
};
const TfArray<4, int> tensor_dimension7 = { 4, { 8,1,1,16 } };
const TfArray<8, float> quant7_scale = { 8, { 0.061742145568132401, 0.049314569681882858, 0.043178021907806396, 0.077531032264232635, 0.065866060554981232, 0.080724067986011505, 0.050661616027355194, 0.079460375010967255, } };
const TfArray<8, int> quant7_zero = { 8, { 0,0,0,0,0,0,0,0 } };
const TfLiteAffineQuantization quant7 = { (TfLiteFloatArray*)&quant7_scale, (TfLiteIntArray*)&quant7_zero, 0 };
const ALIGN(16) int32_t tensor_data8[8] = { -5405, 30405, 9071, 28432, 37840, -34303, 16807, 400, };
const TfArray<1, int> tensor_dimension8 = { 1, { 8 } };
const TfArray<8, float> quant8_scale = { 8, { 0.0014527563471347094, 0.0011603428283706307, 0.0010159534867852926, 0.0018242596415802836, 0.0015497896820306778, 0.0018993898993358016, 0.001192038063891232, 0.0018696559127420187, } };
const TfArray<8, int> quant8_zero = { 8, { 0,0,0,0,0,0,0,0 } };
const TfLiteAffineQuantization quant8 = { (TfLiteFloatArray*)&quant8_scale, (TfLiteIntArray*)&quant8_zero, 0 };
const ALIGN(16) int8_t tensor_data9[48*1*1*8] = { 
  /* [0][0][][] */ -2,-86,127,1,-91,4,66,2, 
  /* [1][0][][] */ -4,-127,120,16,-101,-2,109,43, 
  /* [2][0][][] */ -8,11,-127,-7,-125,6,10,27, 
  /* [3][0][][] */ -109,1,-5,-11,8,-127,8,-5, 
  /* [4][0][][] */ 13,-127,-48,4,9,-12,-59,-7, 
  /* [5][0][][] */ 6,22,-127,0,60,11,98,-63, 
  /* [6][0][][] */ 1,114,-127,-6,94,-4,-94,-22, 
  /* [7][0][][] */ -5,19,-110,-6,-127,8,-1,18, 
  /* [8][0][][] */ 10,12,49,-106,-32,22,-19,-127, 
  /* [9][0][][] */ 4,-25,86,50,127,-14,-8,21, 
  /* [10][0][][] */ -11,33,33,127,32,-10,-97,55, 
  /* [11][0][][] */ -3,92,82,-57,-12,-29,-60,127, 
  /* [12][0][][] */ 37,9,30,-104,-11,33,-2,-127, 
  /* [13][0][][] */ -127,-11,-7,-6,7,93,3,5, 
  /* [14][0][][] */ 3,-66,127,-40,115,-17,47,-70, 
  /* [15][0][][] */ -2,-8,86,48,127,-15,2,45, 
  /* [16][0][][] */ -27,68,-30,127,-50,-10,-116,69, 
  /* [17][0][][] */ 14,-127,-48,-15,5,-15,-67,6, 
  /* [18][0][][] */ 119,4,10,19,-11,127,-20,1, 
  /* [19][0][][] */ 16,56,-127,-113,103,2,-25,-15, 
  /* [20][0][][] */ -9,-40,-62,123,-17,0,67,-127, 
  /* [21][0][][] */ -4,4,127,123,-107,12,-71,-41, 
  /* [22][0][][] */ 17,-127,-36,-18,30,-3,-47,-62, 
  /* [23][0][][] */ -2,27,-103,-11,-127,10,-1,26, 
  /* [24][0][][] */ -8,7,-13,60,24,-18,-11,127, 
  /* [25][0][][] */ -127,-1,-5,-8,-2,-127,6,-5, 
  /* [26][0][][] */ 127,9,1,-1,-3,-100,3,0, 
  /* [27][0][][] */ 4,-19,72,82,127,-13,-19,52, 
  /* [28][0][][] */ 0,0,0,0,0,0,0,0, 
  /* [29][0][][] */ 25,-4,59,-103,72,9,9,-127, 
  /* [30][0][][] */ 3,-23,101,-2,127,-9,6,-19, 
  /* [31][0][][] */ 54,-120,-41,-127,88,18,-115,-44, 
  /* [32][0][][] */ -5,25,-108,-13,-127,9,5,26, 
  /* [33][0][][] */ -16,-50,5,34,11,-4,89,127, 
  /* [34][0][][] */ -6,-125,127,22,-104,1,91,42, 
  /* [35][0][][] */ -7,-3,67,-68,-7,4,-127,72, 
  /* [36][0][][] */ -17,-58,127,58,-79,-5,95,75, 
  /* [37][0][][] */ -21,11,-23,92,-127,-1,4,101, 
  /* [38][0][][] */ 10,11,14,-127,110,0,26,-112, 
  /* [39][0][][] */ -5,27,-35,127,-27,-10,86,-81, 
  /* [40][0][][] */ -13,-25,-95,92,1,-5,127,-94, 
  /* [41][0][][] */ -1,-127,111,1,-91,-1,121,53, 
  /* [42][0][][] */ -100,35,30,41,-35,-127,-73,-38, 
  /* [43][0][][] */ -127,1,0,-4,-5,-126,-3,-8, 
  /* [44][0][][] */ -3,-80,118,-27,-77,3,127,17, 
  /* [45][0][][] */ -8,25,-105,-21,-127,4,9,6, 
  /* [46][0][][] */ 6,-18,111,4,127,-7,1,-21, 
  /* [47][0][][] */ -14,127,25,20,-4,15,104,-17, 
};
const TfArray<4, int> tensor_dimension9 = { 4, { 48,1,1,8 } };
const TfArray<48, float> quant9_scale = { 48, { 0.00069929339224472642, 0.0004816357686650008, 0.0047325934283435345, 0.0025282956194132566, 0.001915921806357801, 0.001349800149910152, 0.00060880312230437994, 0.011829282157123089, 0.0025960390921682119, 0.0018671323778107762, 0.00078591512283310294, 0.0005819790530949831, 0.00092225451953709126, 0.0022173523902893066, 0.00061411724891513586, 0.0018879043636843562, 0.00066685467027127743, 0.0023842027876526117, 0.001295980648137629, 0.00091149820946156979, 0.0016188678564503789, 0.0014182836748659611, 0.0006706532440148294, 0.0026739989407360554, 0.0033541957382112741, 0.00065329216886311769, 0.0015970944659784436, 0.0011658805888146162, 5.9122968742997273e-09, 0.00092458806466311216, 0.00094169174553826451, 0.00052313797641545534, 0.0036062526050955057, 0.00039257251773960888, 0.00049869989743456244, 0.00098435557447373867, 0.00042761003714986145, 0.00051313050789758563, 0.00050492101581767201, 0.0005227660876698792, 0.0017416521441191435, 0.00033484181039966643, 0.00070360518293455243, 0.0004732033412437886, 0.00071817083517089486, 0.0011036274954676628, 0.0092742554843425751, 0.00099480547942221165, } };
const TfArray<48, int> quant9_zero = { 48, { 0,0,0,0,0,0,0,0,0,0,0,0,0,0,0,0,0,0,0,0,0,0,0,0,0,0,0,0,0,0,0,0,0,0,0,0,0,0,0,0,0,0,0,0,0,0,0,0 } };
const TfLiteAffineQuantization quant9 = { (TfLiteFloatArray*)&quant9_scale, (TfLiteIntArray*)&quant9_zero, 0 };
const ALIGN(16) int32_t tensor_data10[48] = { 10290, 13810, -141, 1328, 3, -3986, 13633, 44, -173, 1428, 4249, 5873, 1250, 112, 2597, -44, 3240, -200, -619, -3225, 4276, -2898, 9093, 1787, 321, -4427, 151, 5864, 1073741824, 2839, -376, 10554, 1920, 18904, 13256, 23, 12757, 11601, 18920, 15692, 23, 30587, -491, 21890, 9498, 27, -192, -115, };
const TfArray<1, int> tensor_dimension10 = { 1, { 48 } };
const TfArray<48, float> quant10_scale = { 48, { 0.00027633839636109769, 0.00019032706040889025, 0.001870169653557241, 0.00099910167045891285, 0.0007571110618300736, 0.00053339789155870676, 0.00024057953851297498, 0.0046745543368160725, 0.001025871722958982, 0.00073783105472102761, 0.00031056854641065001, 0.00022997951600700617, 0.00036444549914449453, 0.0008762268116697669, 0.00024267951084766537, 0.00074603944085538387, 0.00026351964334025979, 0.00094216072466224432, 0.00051213015103712678, 0.00036019494291394949, 0.00063972483621910214, 0.00056046037934720516, 0.00026502073160372674, 0.0010566789424046874, 0.0013254709774628282, 0.00025816017296165228, 0.00063112069619819522, 0.00046071872930042446, 2.3363506684859203e-09, 0.00036536765401251614, 0.00037212646566331387, 0.00020672740356530994, 0.0014250758104026318, 0.00015513210382778198, 0.00019707025785464793, 0.00038898584898561239, 0.00016897781461011618, 0.00020277277508284897, 0.000199528643861413, 0.00020658044377341866, 0.00068824522895738482, 0.00013231877528596669, 0.00027804228011518717, 0.00018699483189266175, 0.00028379814466461539, 0.0004361183091532439, 0.0036648893728852272, 0.00039311533328145742, } };
const TfArray<48, int> quant10_zero = { 48, { 0,0,0,0,0,0,0,0,0,0,0,0,0,0,0,0,0,0,0,0,0,0,0,0,0,0,0,0,0,0,0,0,0,0,0,0,0,0,0,0,0,0,0,0,0,0,0,0 } };
const TfLiteAffineQuantization quant10 = { (TfLiteFloatArray*)&quant10_scale, (TfLiteIntArray*)&quant10_zero, 0 };
const ALIGN(16) int8_t tensor_data11[1*3*3*48] = { 
  /* [0][0][][] */ -112,-68,-18,-84,27,109,-57,-34,-31,-30,89,78,-39,42,28,-34,-26,19,103,48,17,75,6,35,-52,-13,-26,73,-55,-22,2,-48,11,-83,106,-97,-73,-1,45,-110,-90,87,127,-8,66,55,-13,-44, -108,73,-90,-119,33,99,-39,-96,-45,114,-127,113,96,62,-34,-87,-19,15,127,89,8,88,2,-80,-127,34,-42,-35,-61,2,111,-77,43,-83,127,-127,90,-93,-105,-127,-106,-76,115,-37,-54,116,-105,-51, -28,-2,-82,-39,14,30,95,-78,-14,-82,38,52,-61,33,-46,12,43,22,58,26,6,56,-7,41,-53,-1,-20,-21,5,127,110,-42,-69,-29,19,-42,-16,71,64,-54,-30,-8,48,-33,-11,72,-94,-10, 
  /* [0][1][][] */ -16,-127,-23,-110,109,100,-62,-46,-89,-49,-34,-74,-25,91,41,-86,16,-84,117,96,38,116,-106,39,-61,31,-93,127,-35,38,10,79,22,-109,-76,-86,95,-17,45,114,-111,127,109,-36,-127,58,-17,-107, -23,115,-127,-127,127,127,-61,-127,-127,123,42,-127,127,127,-123,-127,-127,-127,101,127,115,127,-127,-127,-87,127,-127,-81,-16,19,127,127,72,-127,-89,-112,-127,127,-127,113,-127,-121,-65,-127,109,127,-127,-127, -3,9,-114,-36,33,55,127,-98,-66,-127,-8,-77,-89,52,-127,-30,115,-60,47,35,83,75,-39,29,-62,10,-58,-26,11,-38,90,74,-127,-35,-28,-34,32,-91,78,40,-34,-11,-55,-71,17,93,-104,-44, 
  /* [0][2][][] */ 127,-34,-1,-33,77,-1,-20,-19,-13,-16,-54,-7,-11,58,26,-44,6,-63,58,31,-43,42,100,28,7,12,-69,70,-84,8,3,-28,16,-13,-28,-6,-21,17,0,-9,6,29,54,-28,60,10,-6,-57, 125,36,-46,-41,97,18,-21,-46,-27,49,75,-6,29,94,3,-45,-71,-102,42,42,-127,61,126,-88,-14,10,-96,-41,-127,-27,31,-58,44,-18,-39,10,37,-38,-21,8,-10,-31,-49,-62,-54,53,-50,-74, 35,-3,-38,6,28,6,36,-33,-8,-71,-20,6,-25,44,-4,-20,58,-43,8,9,-85,40,47,18,5,45,-46,-19,-2,-90,31,-28,-84,-9,6,14,-17,24,15,16,8,0,-37,-38,-6,20,-48,-19, 
};
const TfArray<4, int> tensor_dimension11 = { 4, { 1,3,3,48 } };
const TfArray<48, float> quant11_scale = { 48, { 0.0078831342980265617, 0.013882838189601898, 0.0015846194000914693, 0.0010131242452189326, 0.0027332892641425133, 0.0035022331867367029, 0.011316266842186451, 0.0031327556353062391, 0.0039195111021399498, 0.0027023260481655598, 0.0076528703793883324, 0.0054686050862073898, 0.0052969935350120068, 0.0018315166234970093, 0.0037208567373454571, 0.0023253064136952162, 0.0067589264363050461, 0.0045586414635181427, 0.0024886068422347307, 0.0015892842784523964, 0.0023132713977247477, 0.0019409803207963705, 0.0068613165058195591, 0.0032364502549171448, 0.0031353516969829798, 0.0090333111584186554, 0.0027167957741767168, 0.0042501748539507389, 0.013794150203466415, 0.0048148888163268566, 0.0037265184801071882, 0.0069733336567878723, 0.0027253006119281054, 0.0037572863511741161, 0.011079911142587662, 0.0040833265520632267, 0.017245756462216377, 0.011882958933711052, 0.0054611410014331341, 0.0053806249052286148, 0.0024137916043400764, 0.017520789057016373, 0.0055938703007996082, 0.0063089635223150253, 0.016772639006376266, 0.0033650984987616539, 0.0015412815846502781, 0.0046070576645433903, } };
const TfArray<48, int> quant11_zero = { 48, { 0,0,0,0,0,0,0,0,0,0,0,0,0,0,0,0,0,0,0,0,0,0,0,0,0,0,0,0,0,0,0,0,0,0,0,0,0,0,0,0,0,0,0,0,0,0,0,0 } };
const TfLiteAffineQuantization quant11 = { (TfLiteFloatArray*)&quant11_scale, (TfLiteIntArray*)&quant11_zero, 3 };
const ALIGN(16) int32_t tensor_data12[48] = { 3737, 1263, 33393, 68895, 649, 5710, 3330, 13411, 8113, 3436, 10, 48834, 4016, 3994, 20265, 33079, 213, 5034, 1101, 3892, -1736, 9302, -107, 7418, 10445, -11105, 93358, -5437, 37372, 20290, -2212, 193, 6786, 102199, 2248, 33071, -21, -13, 1605, 1123, 32701, 1050, 1, 98904, -13, 41, 33275, 54978, };
const TfArray<1, int> tensor_dimension12 = { 1, { 48 } };
const TfArray<48, float> quant12_scale = { 48, { 0.00018548552179709077, 0.00032665501930750906, 3.728516458068043e-05, 2.3838218112359755e-05, 6.431269139284268e-05, 8.2405487773939967e-05, 0.00026626509497873485, 7.3711897130124271e-05, 9.2223795945756137e-05, 6.358414248097688e-05, 0.00018006753816734999, 0.00012867306941188872, 0.00012463514576666057, 4.309451105655171e-05, 8.7549575255252421e-05, 5.4713094868930057e-05, 0.0001590335596119985, 0.00010726215259637684, 5.8555455325404182e-05, 3.7394926039269194e-05, 5.4429914598586038e-05, 4.5670127292396501e-05, 0.00016144274559337646, 7.6151773100718856e-05, 7.3772986070252955e-05, 0.00021254850435070693, 6.3924606365617365e-05, 0.00010000411566579714, 0.0003245682455599308, 0.00011329150584060699, 8.7682790763210505e-05, 0.00016407844668719918, 6.4124724303837866e-05, 8.8406741269864142e-05, 0.00026070378953590989, 9.6078270871657878e-05, 0.00040578251355327666, 0.00027959904400631785, 0.00012849744234699756, 0.00012660294305533171, 5.6795099226292223e-05, 0.00041225386667065322, 0.00013162048708181828, 0.00014844619727227837, 0.00039465032750740647, 7.9178789746947587e-05, 3.6265450034989044e-05, 0.00010840135655598715, } };
const TfArray<48, int> quant12_zero = { 48, { 0,0,0,0,0,0,0,0,0,0,0,0,0,0,0,0,0,0,0,0,0,0,0,0,0,0,0,0,0,0,0,0,0,0,0,0,0,0,0,0,0,0,0,0,0,0,0,0 } };
const TfLiteAffineQuantization quant12 = { (TfLiteFloatArray*)&quant12_scale, (TfLiteIntArray*)&quant12_zero, 0 };
const ALIGN(16) int8_t tensor_data13[16*1*1*48] = { 
  /* [0][0][][] */ 38,13,4,35,-99,52,7,-5,-26,35,3,39,-6,-9,-7,19,28,11,3,23,23,6,49,24,-44,-26,22,37,28,-60,9,26,31,92,4,43,41,41,27,26,-24,14,-18,22,35,-3,2,127, 
  /* [1][0][][] */ -48,41,4,-15,-1,6,-31,0,18,-4,-7,17,-10,-73,11,1,0,-1,35,5,0,4,13,5,-14,-6,-127,5,32,-8,11,-6,8,-5,14,7,2,4,7,14,-5,-49,20,13,-1,3,0,6, 
  /* [2][0][][] */ 30,-50,-1,7,-12,-8,17,-1,-6,3,14,-12,4,-127,-5,-2,-2,6,-78,13,-7,14,-3,-1,3,2,8,2,56,18,3,2,-4,-30,-21,-23,6,3,1,-8,6,51,-27,-2,7,-1,-9,0, 
  /* [3][0][][] */ -16,11,-36,-19,127,0,-3,-42,14,63,-51,-51,-4,-11,47,66,45,18,-29,9,64,21,7,56,18,24,18,80,50,-82,5,34,89,-4,-28,82,-108,-96,39,76,105,-27,0,-21,-117,113,43,-91, 
  /* [4][0][][] */ -27,-48,11,-26,11,38,-48,14,20,-18,-14,43,53,58,4,-20,-14,15,45,106,-33,127,-13,-13,-38,43,-40,-20,-5,-13,12,-60,-19,-76,-5,-13,-6,-5,-84,-20,19,20,40,-49,-13,-22,-17,-10, 
  /* [5][0][][] */ -48,-4,38,29,3,-55,-60,13,28,44,-23,-19,38,-28,-6,26,21,-14,-41,-125,43,-127,40,50,10,-31,50,56,9,-37,48,42,58,-9,-18,39,-33,-30,-42,61,33,-35,-40,21,-30,-54,-57,-6, 
  /* [6][0][][] */ -127,-33,42,12,-19,7,29,21,62,17,14,-17,-81,34,66,-2,-12,31,-24,108,-15,57,67,42,-45,21,63,31,-41,48,64,13,32,57,-21,-28,-21,0,102,75,34,24,-15,-16,0,-24,-7,-13, 
  /* [7][0][][] */ 4,32,-62,-5,-51,-23,-20,-46,-25,40,74,-23,30,7,-37,-16,79,18,6,23,-23,2,-8,20,9,-7,-7,56,-4,55,109,3,32,55,-25,2,1,-4,33,-9,18,-3,6,13,-8,127,-65,38, 
  /* [8][0][][] */ 56,-81,-44,13,64,16,-29,-17,12,-49,-25,58,-31,16,-28,-81,-47,-38,22,57,-33,-16,-72,-67,7,-16,-22,-55,30,-63,35,-86,-68,127,-101,-55,3,10,-30,-97,-3,-5,-5,22,-7,15,-56,-88, 
  /* [9][0][][] */ -62,-99,-11,67,29,3,28,-4,-25,21,-5,2,-1,6,-30,21,4,-8,40,3,7,-14,-8,1,16,-82,-23,16,2,0,7,-4,2,44,86,48,-28,-33,-2,-4,-14,76,-22,127,-27,15,-1,-1, 
  /* [10][0][][] */ 102,-2,70,7,34,-8,-3,47,-19,24,-33,-127,36,10,30,92,-16,57,38,31,47,-15,36,64,43,-12,-34,13,33,13,-109,91,54,83,-49,20,-69,-63,-37,86,87,30,20,17,-41,-76,103,-48, 
  /* [11][0][][] */ 8,-23,16,4,105,25,-2,9,-11,7,6,-67,-2,-2,-7,19,-11,-33,6,17,69,20,74,6,-17,-8,-1,6,-24,13,-13,99,1,3,10,-86,61,64,-7,77,-66,19,1,3,72,-33,7,-127, 
  /* [12][0][][] */ -39,127,10,58,86,33,-112,25,-21,-43,-12,-5,39,-65,-51,-3,-25,-14,-71,104,-2,40,-20,-19,41,-34,86,-28,36,23,-43,-10,-22,113,74,-18,1,-7,-52,-34,-43,-118,-55,65,1,0,19,-72, 
  /* [13][0][][] */ 27,38,0,80,-3,-12,4,-2,18,-8,3,-6,-3,9,25,-11,3,8,29,-25,-4,1,-4,-1,-9,-79,6,-5,11,2,2,-2,1,-77,-37,-19,3,5,8,2,17,-26,-41,127,0,5,1,-10, 
  /* [14][0][][] */ 37,-45,-19,-6,-44,5,-127,-14,-25,4,11,-11,-39,4,-28,26,-14,22,3,8,11,10,15,0,7,5,-9,37,14,9,-3,25,20,-22,6,27,10,-1,16,9,-7,-28,4,-8,1,29,15,64, 
  /* [15][0][][] */ -108,-72,-80,45,-96,-43,-49,-57,22,-12,16,56,43,-26,79,50,-10,-34,-29,-82,-43,-110,41,-35,-9,-40,50,-59,-11,37,-127,-37,-41,44,-32,-57,57,63,-110,-5,-51,21,-54,37,64,65,69,55, 
};
const TfArray<4, int> tensor_dimension13 = { 4, { 16,1,1,48 } };
const TfArray<16, float> quant13_scale = { 16, { 0.023035909980535507, 0.026754790917038918, 0.026141505688428879, 0.020949032157659531, 0.01883419044315815, 0.015999147668480873, 0.014331917278468609, 0.022574044764041901, 0.019595207646489143, 0.021062204614281654, 0.017551638185977936, 0.017204968258738518, 0.013838684186339378, 0.027965160086750984, 0.019363898783922195, 0.011110948398709297, } };
const TfArray<16, int> quant13_zero = { 16, { 0,0,0,0,0,0,0,0,0,0,0,0,0,0,0,0 } };
const TfLiteAffineQuantization quant13 = { (TfLiteFloatArray*)&quant13_scale, (TfLiteIntArray*)&quant13_zero, 0 };
const ALIGN(16) int32_t tensor_data14[16] = { -66353, 26144, 10385, 15193, 21152, -2781, -24147, -16618, 19685, -28366, 8044, 46250, -24213, -7596, -4899, -34211, };
const TfArray<1, int> tensor_dimension14 = { 1, { 16 } };
const TfArray<16, float> quant14_scale = { 16, { 0.00054202141473069787, 0.00062952452572062612, 0.00061509426450356841, 0.00049291842151433229, 0.00044315741979517043, 0.00037645053816959262, 0.00033722160151228309, 0.00053115398623049259, 0.00046106372610665858, 0.0004955813055858016, 0.00041297971620224416, 0.00040482278564013541, 0.00032561609987169504, 0.00065800378797575831, 0.00045562116429209709, 0.00026143409195356071, } };
const TfArray<16, int> quant14_zero = { 16, { 0,0,0,0,0,0,0,0,0,0,0,0,0,0,0,0 } };
const TfLiteAffineQuantization quant14 = { (TfLiteFloatArray*)&quant14_scale, (TfLiteIntArray*)&quant14_zero, 0 };
const ALIGN(16) int8_t tensor_data15[96*1*1*16] = { 
  /* [0][0][][] */ 28,51,-96,39,14,36,-52,-42,-62,-32,-88,-29,127,5,15,-41, 
  /* [1][0][][] */ 31,68,-21,23,40,84,115,-78,-10,-46,-30,-127,-57,6,-77,112, 
  /* [2][0][][] */ -25,36,-37,-11,59,78,-8,0,26,-45,5,4,114,-25,127,29, 
  /* [3][0][][] */ 18,-51,35,-4,-33,47,26,-1,5,68,-22,5,68,127,1,31, 
  /* [4][0][][] */ -23,9,0,30,-127,-69,107,-46,20,13,-39,-22,-50,7,73,-84, 
  /* [5][0][][] */ 123,36,-25,79,-10,4,28,-127,74,-30,-88,-8,-65,6,-40,9, 
  /* [6][0][][] */ -126,4,-23,1,-47,62,28,-17,67,3,15,127,-17,1,40,56, 
  /* [7][0][][] */ -19,-3,8,25,9,21,20,-5,1,12,27,-127,0,0,-5,-18, 
  /* [8][0][][] */ 90,30,33,50,92,-20,66,-18,-84,12,127,-68,8,26,25,-85, 
  /* [9][0][][] */ 53,39,-42,-4,6,-48,31,127,96,13,-17,98,23,-44,-28,8, 
  /* [10][0][][] */ -4,-45,62,-25,61,25,18,-61,32,93,38,2,-52,-41,127,33, 
  /* [11][0][][] */ 15,-1,2,31,-8,-125,-52,-19,-16,-9,7,-20,18,-3,7,127, 
  /* [12][0][][] */ 94,13,-19,-31,1,-46,69,51,100,9,121,12,110,-127,-28,-7, 
  /* [13][0][][] */ -12,-74,55,-14,13,19,-127,49,12,33,40,-30,93,-108,116,-72, 
  /* [14][0][][] */ 9,-4,3,-12,-14,21,3,-2,7,82,1,0,31,127,1,17, 
  /* [15][0][][] */ -47,-8,21,4,-1,-9,-1,-50,22,-1,0,127,37,3,18,20, 
  /* [16][0][][] */ -40,-58,94,-29,-40,-41,50,-77,19,112,-23,1,-127,-25,114,4, 
  /* [17][0][][] */ -20,-25,38,13,18,-4,-2,33,57,-49,53,-127,-28,43,3,-27, 
  /* [18][0][][] */ 127,34,-53,25,0,-8,-47,-10,53,53,18,49,-12,-77,-87,-18, 
  /* [19][0][][] */ -39,-31,95,17,-103,92,-20,-23,0,-95,-59,-2,10,-127,-8,48, 
  /* [20][0][][] */ -90,-20,61,23,41,-6,-42,-55,-116,-38,-127,21,-55,115,58,-38, 
  /* [21][0][][] */ 40,-28,0,3,-53,-22,-34,-22,27,127,-24,12,-17,-94,4,-44, 
  /* [22][0][][] */ -33,61,-28,0,43,35,127,8,-37,22,-56,-37,11,-16,-31,81, 
  /* [23][0][][] */ -45,25,-39,-10,42,66,-20,-26,28,-37,28,-22,104,10,127,17, 
  /* [24][0][][] */ -32,127,28,-12,-27,61,2,-20,-1,9,-28,-49,60,-21,-5,47, 
  /* [25][0][][] */ -20,1,9,39,110,-65,-15,-34,-106,-64,-58,25,20,127,53,-63, 
  /* [26][0][][] */ -4,-13,24,27,20,-14,-116,2,2,-127,11,9,-28,7,107,-89, 
  /* [27][0][][] */ 0,-2,-3,59,0,-55,-55,23,-10,-3,-3,11,-2,3,1,127, 
  /* [28][0][][] */ 21,-16,10,-9,-9,15,3,-10,6,71,1,-3,34,127,4,8, 
  /* [29][0][][] */ -18,-24,24,4,22,14,-13,-121,-54,-6,111,-127,30,-14,-44,37, 
  /* [30][0][][] */ 52,-1,-23,-31,-17,-45,9,42,86,63,105,6,78,-127,9,-32, 
  /* [31][0][][] */ 16,23,-20,-9,111,84,-38,-24,3,-14,15,-29,127,-6,101,43, 
  /* [32][0][][] */ -5,127,80,-3,-16,-1,-40,3,-1,-2,6,-4,-16,-4,-11,-10, 
  /* [33][0][][] */ -15,-10,21,13,-11,-5,-20,-4,-16,-87,-17,-3,-30,-127,3,-9, 
  /* [34][0][][] */ -67,-20,8,27,-38,46,-6,-107,7,34,57,-127,20,-20,38,1, 
  /* [35][0][][] */ 16,-13,78,56,86,-60,-12,23,-68,-120,-62,-19,-72,127,-58,-29, 
  /* [36][0][][] */ -10,9,22,31,-16,14,37,127,81,18,-99,-1,28,-8,-45,15, 
  /* [37][0][][] */ -5,-127,-84,-1,-7,7,25,8,7,-5,-4,5,-29,15,0,3, 
  /* [38][0][][] */ -19,18,50,5,87,19,121,34,71,-127,74,-38,-70,105,-49,84, 
  /* [39][0][][] */ 45,19,-13,-19,32,-68,56,49,-7,64,39,12,127,-81,-10,-16, 
  /* [40][0][][] */ 34,-6,2,-19,5,-13,-15,6,-7,14,-15,-127,-1,-11,16,-13, 
  /* [41][0][][] */ 0,127,99,-4,-51,27,-40,14,17,-6,1,11,-13,-15,-20,13, 
  /* [42][0][][] */ -26,26,-29,0,30,20,46,-12,-45,81,-53,-127,41,-50,-19,21, 
  /* [43][0][][] */ -11,42,-33,-1,34,40,20,-9,23,-44,12,-1,81,10,127,17, 
  /* [44][0][][] */ 58,-11,36,37,47,6,62,17,31,-101,29,-39,-127,87,-32,13, 
  /* [45][0][][] */ -10,2,-43,-11,15,-47,-8,21,10,15,-3,127,11,1,-3,-4, 
  /* [46][0][][] */ 93,5,33,-31,10,-107,127,67,60,101,115,21,56,-85,-97,-6, 
  /* [47][0][][] */ -56,0,38,33,50,55,-116,-102,-127,-102,-120,2,-65,122,-46,-13, 
  /* [48][0][][] */ 114,15,-59,57,-1,5,-98,-97,-26,61,-127,27,43,-48,-8,-55, 
  /* [49][0][][] */ 91,4,3,-83,-35,69,49,19,-69,-28,16,-24,-89,-17,100,127, 
  /* [50][0][][] */ 34,20,-1,-29,93,117,-47,90,52,-4,40,4,127,-73,90,48, 
  /* [51][0][][] */ -12,-14,-82,-43,125,-40,100,-8,104,67,127,-57,52,-95,29,59, 
  /* [52][0][][] */ -5,-48,120,-50,127,99,-28,20,56,127,5,53,-68,-75,86,61, 
  /* [53][0][][] */ -3,-82,88,-1,101,-33,-16,-117,54,77,88,45,-127,-15,-23,18, 
  /* [54][0][][] */ -19,-61,63,-54,56,17,33,-22,79,127,99,-18,69,-115,46,11, 
  /* [55][0][][] */ -22,41,37,28,122,-55,78,-32,-127,44,-67,8,26,59,-3,-12, 
  /* [56][0][][] */ 27,-22,94,-10,-63,50,16,-1,20,68,-18,-10,85,127,-17,34, 
  /* [57][0][][] */ -58,8,-14,-57,5,23,31,-127,16,-13,39,-35,23,-19,-7,44, 
  /* [58][0][][] */ -24,61,-96,28,-92,-27,25,-51,-8,-127,-4,-87,123,64,52,-18, 
  /* [59][0][][] */ 0,4,11,-63,-8,77,64,-17,31,-1,-18,-11,-7,4,10,-127, 
  /* [60][0][][] */ -88,4,21,37,68,76,-12,-121,-107,-127,-105,56,-116,75,22,74, 
  /* [61][0][][] */ 3,127,91,-6,-28,0,-22,6,18,29,16,-1,4,3,-13,0, 
  /* [62][0][][] */ 21,-12,21,9,2,17,-79,6,10,-25,18,10,2,127,93,-49, 
  /* [63][0][][] */ 63,-7,11,-44,11,-18,-5,-6,-22,5,-10,-127,-7,-4,37,12, 
  /* [64][0][][] */ -59,-17,8,-30,-45,33,-14,-69,-41,6,50,-127,-17,-7,33,21, 
  /* [65][0][][] */ -14,-27,127,38,-25,22,17,-26,-25,-81,-53,-18,51,-100,-17,14, 
  /* [66][0][][] */ 32,-3,4,-12,18,-12,-5,-11,5,3,-15,-127,-1,-3,1,-2, 
  /* [67][0][][] */ 38,4,-1,-53,10,-11,18,14,-14,3,-19,-127,-36,-13,29,9, 
  /* [68][0][][] */ -31,14,-20,-4,-127,-78,96,-78,24,-4,-36,-32,-23,14,100,-60, 
  /* [69][0][][] */ -2,49,-127,-12,90,-86,-6,23,5,26,52,18,-70,15,25,-44, 
  /* [70][0][][] */ 45,10,-12,-107,-17,-67,-84,57,46,-24,-121,-127,-31,-14,-48,48, 
  /* [71][0][][] */ -15,40,-56,-4,-127,-94,50,-72,-27,-82,-30,-75,73,38,16,-30, 
  /* [72][0][][] */ 7,-127,-35,12,3,20,26,-7,-9,-18,-35,4,31,15,14,9, 
  /* [73][0][][] */ 15,18,15,13,36,25,47,-8,70,-127,36,-58,-24,71,-12,54, 
  /* [74][0][][] */ 67,-51,73,32,18,18,-68,-33,127,-106,78,-50,-87,73,23,-25, 
  /* [75][0][][] */ 125,-28,25,43,9,15,-88,-9,127,-117,49,33,-85,70,-1,-22, 
  /* [76][0][][] */ 10,-33,25,14,-50,-80,33,-29,-11,40,-6,-12,-88,-7,-127,-26, 
  /* [77][0][][] */ 37,13,-30,-16,6,-30,-40,127,18,-2,-50,73,-44,13,-94,-18, 
  /* [78][0][][] */ -14,61,-11,-71,57,55,-41,54,-24,-32,47,-8,127,-9,106,-16, 
  /* [79][0][][] */ -1,-127,-23,4,-45,70,35,-1,-7,-23,-59,6,48,6,7,42, 
  /* [80][0][][] */ -42,35,-127,-23,-12,12,-22,23,16,10,31,11,-90,-29,9,11, 
  /* [81][0][][] */ 4,102,127,-3,-72,38,-24,7,16,8,-7,6,4,-10,-29,22, 
  /* [82][0][][] */ -102,72,17,0,-15,32,-75,-34,-70,-98,-55,-52,-127,-91,-34,9, 
  /* [83][0][][] */ -53,6,-3,6,71,-127,48,59,-35,38,-50,96,18,7,20,-67, 
  /* [84][0][][] */ 10,-28,21,-5,127,40,-105,-18,-18,21,68,0,35,-28,-34,112, 
  /* [85][0][][] */ 56,-39,127,-8,-23,19,-29,-47,4,1,34,-34,122,-10,48,21, 
  /* [86][0][][] */ 35,-9,15,-2,21,-2,91,25,-13,91,-14,3,127,88,-10,23, 
  /* [87][0][][] */ 93,72,-53,45,94,86,84,-127,-51,70,-94,-95,29,-46,-27,80, 
  /* [88][0][][] */ 127,-34,15,-5,37,-48,-21,53,74,-2,88,-19,118,-34,39,-67, 
  /* [89][0][][] */ 6,6,8,-10,-3,13,-5,-11,-5,69,-5,-7,15,127,-1,12, 
  /* [90][0][][] */ 127,19,-11,-76,-8,3,23,16,-112,-10,23,38,-81,-4,110,74, 
  /* [91][0][][] */ -61,-15,-25,-48,-11,-117,-82,26,64,0,-108,-38,0,1,-8,127, 
  /* [92][0][][] */ 5,7,13,-76,29,121,48,2,28,6,-1,-8,2,-10,-33,-127, 
  /* [93][0][][] */ 16,43,-64,-30,-38,31,122,70,49,64,79,-37,68,-127,-30,74, 
  /* [94][0][][] */ -20,12,-12,22,124,22,99,-104,-61,127,-27,32,26,-68,-9,100, 
  /* [95][0][][] */ -36,-49,76,-8,28,24,60,-61,59,111,21,4,-75,-42,127,8, 
};
const TfArray<4, int> tensor_dimension15 = { 4, { 96,1,1,16 } };
const TfArray<96, float> quant15_scale = { 96, { 0.00074464938370510936, 0.0020222875755280256, 0.0021608807146549225, 0.001850203494541347, 0.00086571136489510536, 0.0019440142204985023, 0.0011681356700137258, 0.0034962112549692392, 0.0012867710320279002, 0.00064851460047066212, 0.0023664576001465321, 0.0021745827980339527, 0.00091696355957537889, 0.0012610479025170207, 0.0010276046814396977, 0.0010744059691205621, 0.00022549915593117476, 0.0018396190134808421, 0.0014287121593952179, 0.0025990069843828678, 0.00062624382553622127, 0.0014707980444654822, 0.0038101163227111101, 0.0027529343497008085, 0.0023058527149260044, 0.0010556221241131425, 0.0031510330736637115, 0.001870620995759964, 0.00091607071226462722, 0.00141623814124614, 0.00075878889765590429, 0.0017724926583468914, 0.00047398617607541382, 0.0014790005516260862, 0.0024919372517615557, 0.00070739915827289224, 0.00097417313372716308, 0.001739144790917635, 0.0019555350299924612, 0.001194633194245398, 0.0049651302397251129, 0.0017074057832360268, 0.0030013045761734247, 0.0044692656956613064, 0.0015939390286803246, 0.001287772785872221, 0.00088625965872779489, 0.00063942803535610437, 0.00078254676191136241, 0.0020887174177914858, 0.0015012606745585799, 0.0011023915139958262, 0.0021222401410341263, 0.0017133628716692328, 0.0011151639046147466, 0.0012116404250264168, 0.0029112217016518116, 0.00082730216672644019, 0.0016536676557734609, 0.001122625544667244, 0.00057425530394539237, 0.0013006746303290129, 0.0033899778500199318, 0.0032037475612014532, 0.00097044155700132251, 0.0039022359997034073, 0.0039942828007042408, 0.0028290667105466127, 0.0031867425423115492, 0.0014705559005960822, 0.0017798062181100249, 0.00033282634103670716, 0.0026065108831971884, 0.0019638037774711847, 0.0024115848354995251, 0.002033276716247201, 0.0060058333911001682, 0.00085012952331453562, 0.00125964789185673, 0.003010597312822938, 0.0013995356857776642, 0.0027517161797732115, 0.00064857729012146592, 0.00085664540529251099, 0.003772359574213624, 0.00039284778176806867, 0.0020020417869091034, 0.0016363967442885041, 0.0018333656480535865, 0.00078058510553091764, 0.00043953748536296189, 0.0013419931055977941, 0.0021906332112848759, 0.0010068203555420041, 0.0010590523015707731, 0.0024102113675326109, } };
const TfArray<96, int> quant15_zero = { 96, { 0,0,0,0,0,0,0,0,0,0,0,0,0,0,0,0,0,0,0,0,0,0,0,0,0,0,0,0,0,0,0,0,0,0,0,0,0,0,0,0,0,0,0,0,0,0,0,0,0,0,0,0,0,0,0,0,0,0,0,0,0,0,0,0,0,0,0,0,0,0,0,0,0,0,0,0,0,0,0,0,0,0,0,0,0,0,0,0,0,0,0,0,0,0,0,0 } };
const TfLiteAffineQuantization quant15 = { (TfLiteFloatArray*)&quant15_scale, (TfLiteIntArray*)&quant15_zero, 0 };
const ALIGN(16) int32_t tensor_data16[96] = { 15682, -50, 1198, 2428, 4889, -1307, -834, -2400, 2693, 14199, -1247, -1990, 15981, 4495, 11032, 5091, 35620, -1895, 1015, 3067, 15322, 9438, 217, -1852, 1295, 1705, 4120, 5218, 21916, 5587, 8958, -1089, 23247, 4372, -566, 5941, 4061, 2113, 1458, 995, -1057, 3298, -2554, 382, 1087, 3613, 722, 18081, 7279, 626, 6205, -6083, 4239, -871, 8803, 1621, -19, 24699, -1986, 5762, 26181, 8155, 3733, -1753, 21276, -253, -2168, 3272, 1943, 3672, -1764, 26806, 1864, -1160, -1308, 5141, 1279, 5493, -1061, 461, 3089, 105, 27818, 7267, -1717, 42146, -1496, -2438, -205, 21971, 21898, 3338, 870, 7021, -1055, -1071, };
const TfArray<1, int> tensor_dimension16 = { 1, { 96 } };
const TfArray<96, float> quant16_scale = { 96, { 0.00016378912550862879, 0.00044481162331067026, 0.00047529584844596684, 0.00040696092764846981, 0.00019041726773139089, 0.00042759504867717624, 0.0002569369098637253, 0.00076900806743651628, 0.00028303131693974137, 0.00014264382480178028, 0.00052051345119252801, 0.00047830966650508344, 0.0002016904327319935, 0.00027737338677980006, 0.00022602645913138986, 0.00023632062948308885, 4.959959551342763e-05, 0.00040463282493874431, 0.00031425192719325423, 0.00057166378246620297, 0.00013774525723420084, 0.00032350892433896661, 0.00083805294707417488, 0.00060552079230546951, 0.00050718308193609118, 0.00023218903515953571, 0.00069308449747040868, 0.00041145185241475701, 0.00020149404008407146, 0.00031150822178460658, 0.00016689917538315058, 0.00038986807339824736, 0.00010425547952763736, 0.00032531309989280999, 0.00054811325389891863, 0.0001555957569507882, 0.00021427393949124962, 0.00038253303500823677, 0.00043012909009121358, 0.00026276515563949943, 0.0010921036591753364, 0.00037555189919658005, 0.00066015101037919521, 0.00098303589038550854, 0.00035059434594586492, 0.0002832516620401293, 0.00019493696163408458, 0.00014064519200474024, 0.00017212482634931803, 0.00045942317228764296, 0.00033020932460203767, 0.0002424761769361794, 0.0004667966568376869, 0.00037686218274757266, 0.00024528551148250699, 0.00026650598738342524, 0.00064033683156594634, 0.00018196899327449501, 0.00036373196053318679, 0.00024692673468962312, 0.00012631014396902174, 0.00028608948923647404, 0.00074564153328537941, 0.00070467928890138865, 0.00021345316781662405, 0.0008583150920458138, 0.00087856122991070151, 0.00062226649606600404, 0.00070093892281875014, 0.00032345566432923079, 0.0003914767294190824, 7.3206712841056287e-05, 0.00057331426069140434, 0.00043194784666411579, 0.00053043937077745795, 0.00044722872553393245, 0.0013210112228989601, 0.00018698997155297548, 0.00027706546825356781, 0.00066219497239217162, 0.00030783441616222262, 0.00060525286244228482, 0.00014265762001741678, 0.0001884231751319021, 0.00082974816905334592, 8.6408712377306074e-05, 0.00044035847531631589, 0.00035993312485516071, 0.00040325734880752861, 0.00017169334751088172, 9.6678326372057199e-05, 0.00029517768416553736, 0.00048184004845097661, 0.00022145485854707658, 0.00023294350830838084, 0.00053013727301731706, } };
const TfArray<96, int> quant16_zero = { 96, { 0,0,0,0,0,0,0,0,0,0,0,0,0,0,0,0,0,0,0,0,0,0,0,0,0,0,0,0,0,0,0,0,0,0,0,0,0,0,0,0,0,0,0,0,0,0,0,0,0,0,0,0,0,0,0,0,0,0,0,0,0,0,0,0,0,0,0,0,0,0,0,0,0,0,0,0,0,0,0,0,0,0,0,0,0,0,0,0,0,0,0,0,0,0,0,0 } };
const TfLiteAffineQuantization quant16 = { (TfLiteFloatArray*)&quant16_scale, (TfLiteIntArray*)&quant16_zero, 0 };
const ALIGN(16) int8_t tensor_data17[1*3*3*96] = { 
  /* [0][0][][] */ 4,-19,27,12,-1,-127,28,-13,-25,13,34,1,5,-127,-113,-7,3,-14,7,12,-37,116,-11,-19,-36,21,-9,-1,6,-19,25,126,21,14,-9,-65,-26,-81,-15,11,17,51,-26,-55,11,-32,15,-5,3,-82,-18,26,-4,-20,-31,-25,-6,42,-35,-27,13,2,-2,-5,-13,19,-8,22,-6,21,5,2,127,-47,1,2,-4,-23,27,-106,3,107,17,7,-11,-11,-8,-22,-21,9,17,-84,-7,-36,-21,-14, 72,94,-26,-36,-109,38,-16,-40,-14,3,-127,32,76,109,127,-45,120,33,87,-10,1,-102,-127,3,-23,3,-127,-60,88,-16,-21,-127,13,-59,-12,-127,-127,-71,-58,80,13,68,-15,-1,82,-109,-18,6,-3,-118,19,-127,-12,8,15,-99,59,-86,26,26,93,18,-127,-127,57,-63,0,-2,25,-22,53,127,82,-82,28,-7,-6,35,-31,-78,12,77,-32,41,35,-5,80,-28,-105,-22,14,-116,-6,-85,-36,34, -75,-13,-20,32,-3,59,23,-8,-20,-40,22,9,11,19,-8,45,6,-4,-52,-8,26,-5,-8,-31,-52,-16,36,-6,41,11,-4,-21,-73,-51,-2,-43,-7,4,-5,16,10,-1,-14,16,18,4,-51,3,-2,-27,3,6,2,14,4,-27,8,43,-7,-6,10,18,31,21,-14,-12,-12,11,-7,22,-2,-2,33,127,-62,6,5,-11,2,-3,-12,25,-2,-17,-20,-9,29,-10,-32,0,11,-31,6,-10,41,-28, 
  /* [0][1][][] */ -127,35,127,109,-2,63,-53,-6,42,116,-35,-127,-14,97,102,-98,-1,34,127,114,-123,-127,22,3,-127,39,-77,-13,-11,4,17,-99,-19,-81,-42,43,-1,127,20,-25,-35,-56,17,-107,14,61,107,-119,-122,-58,-108,7,19,-81,-77,-16,46,-38,-72,-50,-28,-117,-92,17,58,-55,32,-18,2,-12,-30,0,-47,26,-66,-33,-127,-107,-65,127,-2,-127,98,37,1,-75,-63,61,-22,87,77,-86,-23,-3,124,-32, 21,-127,-17,37,127,-67,127,127,127,26,110,51,-127,-84,-112,-82,-127,127,60,63,4,11,22,127,-79,127,32,127,-127,-127,-127,90,-9,127,127,49,6,-14,127,127,-127,-127,127,89,50,127,127,127,127,101,127,-15,-127,14,127,127,-127,-127,127,127,-127,127,23,67,-127,127,127,-127,127,-127,127,-115,-112,44,127,127,-32,127,-127,125,127,-93,-127,-127,127,127,91,127,127,-127,127,127,-127,2,6,127, 95,17,-49,-127,2,4,2,-30,16,-127,-18,8,-20,-14,5,127,-6,-10,-50,-127,127,61,8,-48,-70,-126,70,-6,-55,21,120,26,127,35,-47,46,6,-84,11,1,10,28,6,127,26,7,-101,-13,-6,-45,-22,21,65,127,62,14,6,-7,-20,-1,-11,-36,80,-2,55,-12,11,39,6,-1,-32,-7,12,-72,9,-91,-6,-75,123,-104,-31,71,52,58,-19,-43,61,7,24,59,31,-27,-3,-5,-127,-54, 
  /* [0][2][][] */ 119,-15,26,57,-4,60,28,-4,-16,19,-5,1,2,31,12,18,-3,-29,-11,36,-21,3,28,-13,-52,7,10,0,2,13,-5,-36,3,-37,1,18,27,74,-10,-40,20,12,-22,-41,-21,-16,-30,5,-4,-82,-7,21,-3,-29,-3,-4,28,44,-16,-8,0,-37,10,-2,-17,-18,-11,23,-8,24,1,-1,7,25,-26,-1,-7,4,12,84,-44,-85,33,-4,-15,-20,-8,-45,2,36,2,-32,3,25,23,-4, -116,32,-25,46,-10,-20,22,-44,-24,-10,17,14,58,-25,-17,-31,3,-11,-106,22,5,78,26,2,-98,-20,75,-39,45,82,-12,43,13,11,-21,70,107,22,-37,-110,37,31,1,0,-127,-61,-31,-4,4,-127,3,34,-7,0,-3,35,-14,36,6,12,47,80,81,-103,58,11,27,33,9,20,16,-13,-27,31,-19,-5,-15,3,50,18,-54,-38,-57,52,4,14,-127,-71,22,-60,7,-18,9,127,19,11, -5,-3,-12,-59,0,-48,24,1,-3,-22,-14,3,6,-4,3,16,0,-15,2,-62,22,-47,14,-22,12,-29,-6,-3,12,12,9,-5,3,45,7,-8,14,-39,-9,-34,5,3,-25,5,-27,6,-18,-3,-1,-7,8,-1,-2,1,-6,12,-12,58,-4,-4,0,1,-2,29,-29,-15,-16,12,-11,11,1,10,-6,-54,-12,3,9,-1,-11,-66,-33,62,9,-9,-18,-11,-64,-6,8,21,13,-4,8,1,-11,-19, 
};
const TfArray<4, int> tensor_dimension17 = { 4, { 1,3,3,96 } };
const TfArray<96, float> quant17_scale = { 96, { 0.020330348983407021, 0.010840397328138351, 0.0065292189829051495, 0.0052546667866408825, 0.01597791351377964, 0.0063136233948171139, 0.0059488974511623383, 0.038388472050428391, 0.014258692041039467, 0.013242831453680992, 0.015624602325260639, 0.031329020857810974, 0.02895786240696907, 0.0086475023999810219, 0.012046697549521923, 0.009588249959051609, 0.035089261829853058, 0.019013943150639534, 0.0046445340849459171, 0.0029994340147823095, 0.01027741190046072, 0.016708742827177048, 0.0049230000004172325, 0.016406789422035217, 0.0040695816278457642, 0.0097943991422653198, 0.0030350799206644297, 0.01066311914473772, 0.020159110426902771, 0.008047817274928093, 0.019171606749296188, 0.010153801180422306, 0.027823721989989281, 0.0056860977783799171, 0.011271298862993717, 0.0092557705938816071, 0.0084758717566728592, 0.0034453282132744789, 0.0085413241758942604, 0.0086969891563057899, 0.0089677190408110619, 0.011585906147956848, 0.01560920849442482, 0.0034590829163789749, 0.0059897666797041893, 0.012566275894641876, 0.0075644315220415592, 0.039034623652696609, 0.016985716298222542, 0.0014992050128057599, 0.0062776887789368629, 0.031140277162194252, 0.005959970410913229, 0.011287667788565159, 0.0087381349876523018, 0.0095013845711946487, 0.0079908724874258041, 0.0071940305642783642, 0.0077622705139219761, 0.019703434780240059, 0.028101097792387009, 0.0084840422496199608, 0.0030923392623662949, 0.0073623633943498135, 0.010972896590828896, 0.0052537834271788597, 0.014065491035580635, 0.0057629491202533245, 0.010409918613731861, 0.021271178498864174, 0.0052201729267835617, 0.027891600504517555, 0.0064417803660035133, 0.012036018073558807, 0.0047791879624128342, 0.0085900574922561646, 0.0040883463807404041, 0.01662164181470871, 0.0065839118324220181, 0.003398022148758173, 0.017769534140825272, 0.0041836351156234741, 0.013694639317691326, 0.010634512640535831, 0.013029775582253933, 0.014644109643995762, 0.0061872117221355438, 0.0084024332463741302, 0.0076597263105213642, 0.030796904116868973, 0.01396136824041605, 0.0040579806081950665, 0.0091769667342305183, 0.0075781759805977345, 0.01016960758715868, 0.0094738258048892021, } };
const TfArray<96, int> quant17_zero = { 96, { 0,0,0,0,0,0,0,0,0,0,0,0,0,0,0,0,0,0,0,0,0,0,0,0,0,0,0,0,0,0,0,0,0,0,0,0,0,0,0,0,0,0,0,0,0,0,0,0,0,0,0,0,0,0,0,0,0,0,0,0,0,0,0,0,0,0,0,0,0,0,0,0,0,0,0,0,0,0,0,0,0,0,0,0,0,0,0,0,0,0,0,0,0,0,0,0 } };
const TfLiteAffineQuantization quant17 = { (TfLiteFloatArray*)&quant17_scale, (TfLiteIntArray*)&quant17_zero, 3 };
const ALIGN(16) int32_t tensor_data18[96] = { 7506, 1, -177, -5573, -20, 21821, -4413, 6184, -14270, 1598, 510, 63, 834, -48, -54, 17, 394, -1316, 21157, -4854, -189, 9982, 22383, 618, 14307, 1641, 46017, -129, -320, 3591, 2239, 153, -7461, 12957, 10587, -867, -986, 43021, -1458, 1499, 15043, -1239, 2131, 565, 4617, 19, 2091, 4962, 301, 21965, -716, -165, 6565, 10320, -11549, 329, 22784, 15096, -538, -4454, 984, -5983, 41685, 6949, 6955, 19280, -3873, 24402, -12601, 2394, 11084, 34, -4300, 54, 21997, 21, 17945, 1243, 11780, 36391, 756, 32536, 1878, 9664, -2793, 7928, -3, -709, 1463, -470, -26080, 19863, 31336, -37, 2223, -608, };
const TfArray<1, int> tensor_dimension18 = { 1, { 96 } };
const TfArray<96, float> quant18_scale = { 96, { 0.0004783611511811614, 0.00025506818201392889, 0.00015362868725787848, 0.00012363922724034637, 0.00037595091271214187, 0.00014855584595352411, 0.00013997405767440796, 0.0009032581583596766, 0.00033549865474924445, 0.00031159602804109454, 0.00036763769458048046, 0.00073715345934033394, 0.00068136147456243634, 0.00020347065583337098, 0.00028345172177068889, 0.0002256058796774596, 0.00082562968600541353, 0.0004473869048524648, 0.0001092831589630805, 7.0574918936472386e-05, 0.00024182145716622472, 0.00039314691093750298, 0.00011583529703784734, 0.00038604211295023561, 9.5754861831665039e-05, 0.00023045645502861589, 7.1413647674489766e-05, 0.00025089693372137845, 0.00047433201689273119, 0.00018936040578410029, 0.00045109662460163236, 0.00023891298042144626, 0.00065467582317069173, 0.00013379054144024849, 0.0002652070252224803, 0.00021778284281026572, 0.00019943228107877076, 8.1066544225905091e-05, 0.00020097233937121928, 0.00020463504188228399, 0.0002110051573254168, 0.00027260955539532006, 0.00036727549741044641, 8.1390186096541584e-05, 0.00014093569188844413, 0.00029567707679234445, 0.00017798662884160876, 0.00091846176655963063, 0.00039966392796486616, 3.5275414120405912e-05, 0.00014771032147109509, 0.00073271238943561912, 0.00014023459516465664, 0.00026559218531474471, 0.00020560318080242723, 0.00022356199042405933, 0.00018802053818944842, 0.00016927131218835711, 0.00018264165555592626, 0.00046361025306396186, 0.00066120229894295335, 0.00019962452643085271, 7.2760922193992883e-05, 0.00017323208157904446, 0.00025818581343628466, 0.00012361843255348504, 0.00033095272374339402, 0.00013559880608227104, 0.00024493926321156323, 0.00050049833953380585, 0.00012282759416848421, 0.00065627298317849636, 0.00015157130837906152, 0.00028320043929852545, 0.00011245148198213428, 0.00020211900118738413, 9.6196388767566532e-05, 0.00039109744830057025, 0.00015491557132918388, 7.9953460954129696e-05, 0.00041810670518316329, 9.8438475106377155e-05, 0.00032222681329585612, 0.00025022382033057511, 0.00030658295145258307, 0.00034456729190424085, 0.00014558144903276116, 0.00019770431390497833, 0.00018022886069957167, 0.00072463304968550801, 0.00032850279239937663, 9.5481897005811334e-05, 0.00021592863777186722, 0.00017831003060564399, 0.00023928488371893764, 0.0002229135570814833, } };
const TfArray<96, int> quant18_zero = { 96, { 0,0,0,0,0,0,0,0,0,0,0,0,0,0,0,0,0,0,0,0,0,0,0,0,0,0,0,0,0,0,0,0,0,0,0,0,0,0,0,0,0,0,0,0,0,0,0,0,0,0,0,0,0,0,0,0,0,0,0,0,0,0,0,0,0,0,0,0,0,0,0,0,0,0,0,0,0,0,0,0,0,0,0,0,0,0,0,0,0,0,0,0,0,0,0,0 } };
const TfLiteAffineQuantization quant18 = { (TfLiteFloatArray*)&quant18_scale, (TfLiteIntArray*)&quant18_zero, 0 };
const ALIGN(16) int8_t tensor_data19[16*1*1*96] = { 
  /* [0][0][][] */ 37,2,2,44,54,-42,78,-13,7,25,75,-10,57,25,9,34,10,33,54,40,49,59,-56,19,-16,-21,-32,-28,4,49,31,46,22,-36,19,53,-13,0,69,15,-58,17,4,-2,-9,22,36,8,98,-52,81,22,42,-12,-38,9,-22,21,81,8,-14,54,14,-70,-5,-79,86,-62,65,55,5,93,18,37,31,68,-17,26,7,-52,-34,-25,33,-87,53,-127,53,66,-29,15,17,57,27,6,-76,75, 
  /* [1][0][][] */ -5,-2,8,5,-9,-13,-1,-2,0,-6,-5,2,19,1,15,-1,-4,2,6,-12,-12,3,11,9,12,-14,-8,5,19,7,15,-1,-67,15,7,17,0,-99,-2,-21,-9,-21,16,-7,16,-4,-5,10,-6,2,-7,3,0,1,-12,-1,-9,-2,-9,5,-6,-32,15,8,-41,-1,2,0,-5,0,0,-1,35,-5,-11,-12,19,-6,9,-102,15,-127,-10,8,0,27,4,1,0,2,-7,-7,5,6,-7,-10, 
  /* [2][0][][] */ -3,8,-6,34,13,14,-8,-4,-8,1,10,6,-7,3,-13,12,15,21,-5,49,-4,-5,10,-37,24,35,9,-4,-12,15,-8,-6,-10,33,16,-26,9,-127,8,22,-9,-28,-29,-5,-10,17,-31,-14,5,19,-1,32,-12,2,30,16,-3,12,2,3,9,-9,4,-13,77,-26,-7,-2,1,92,10,-5,9,8,10,17,-47,8,-17,-126,-87,-113,-4,-56,6,62,17,0,1,-8,22,-4,-1,-7,14,1, 
  /* [3][0][][] */ 4,-49,38,1,-70,-74,-40,-7,-12,4,-38,41,24,-52,-60,-14,-92,-11,-15,8,-1,23,12,-10,-4,17,-5,-13,13,-4,23,-50,-5,7,0,19,-17,31,21,0,31,-10,-12,-19,24,25,16,24,-49,17,3,21,10,3,-10,25,9,51,29,50,-10,-1,-27,44,88,7,-25,62,25,27,-42,-66,1,-45,-46,-38,12,19,32,2,-16,9,16,13,14,-3,8,18,-21,14,3,34,-127,-7,-42,9, 
  /* [4][0][][] */ 9,35,15,18,9,-11,15,-23,-79,24,5,-17,9,-1,-57,-3,-19,-51,-9,33,30,-30,-5,3,-12,42,12,9,-60,27,-26,14,2,-66,-54,22,40,-23,21,53,26,33,-29,127,13,-43,54,-42,-10,11,90,-17,41,-28,-65,21,-63,26,106,-13,17,54,6,19,57,-102,11,7,80,17,-37,-22,16,11,30,-1,-45,40,-15,19,-56,4,97,-69,42,-64,1,53,60,-17,-118,-40,27,-3,-7,80, 
  /* [5][0][][] */ 14,-4,-29,-8,-7,-48,1,46,22,-27,7,8,-6,-12,-33,-20,-47,50,-24,8,-15,-3,-4,13,25,-53,-4,-23,-3,-29,0,-9,13,-1,60,21,-7,1,-15,-35,-13,13,10,26,-2,-45,-25,-18,-17,55,33,23,-8,-21,-22,-32,-14,0,14,-3,9,3,-2,64,-96,18,-4,-13,28,5,-34,-22,-3,-4,9,-16,-28,-23,16,2,-52,0,-1,127,46,15,-22,4,-18,-11,35,20,39,-45,-28,25, 
  /* [6][0][][] */ -43,-18,45,2,-30,-18,-12,47,16,-34,-13,17,38,18,-39,15,29,20,82,23,-2,-6,13,-6,43,21,16,-15,-68,-37,55,-17,19,-31,45,42,-21,30,-11,-11,-13,20,27,-12,53,-36,17,24,-34,39,-17,39,-17,26,-1,27,-45,-52,-44,4,-40,-6,10,28,-127,-33,-35,-32,-30,59,-13,-9,-9,-21,9,-19,8,-40,51,14,-72,6,-23,-15,6,24,2,-5,10,-49,43,-3,59,-3,27,-20, 
  /* [7][0][][] */ -22,26,-58,-14,39,-3,32,21,32,14,11,58,-48,-5,-2,16,10,0,29,-21,-63,-54,-17,38,10,-17,23,53,-21,34,-70,2,-8,-11,-34,-10,-76,-33,-32,61,-65,9,-53,40,-28,-16,16,-19,-51,-5,55,-26,33,13,-26,4,-10,127,21,50,21,52,32,-10,-9,-19,35,-63,83,-24,-77,-18,19,-27,-16,4,8,18,16,3,-1,-22,78,-30,84,-88,-14,-35,66,43,37,21,-71,-46,36,79, 
  /* [8][0][][] */ 32,-45,-45,-4,24,-5,-56,-12,55,29,26,5,-28,1,57,2,-75,26,-31,8,19,26,15,-82,21,-43,-10,112,-47,33,41,-12,7,-22,-19,30,10,-12,-62,51,17,-51,-109,31,-77,-28,21,-10,-13,81,-63,15,-81,-37,-63,-29,9,-52,-14,-36,-83,-60,31,14,-12,17,-14,22,-72,-27,16,1,-33,20,-37,15,-69,-39,77,-27,5,11,-72,-47,-20,110,33,-66,-53,-30,-112,-127,-6,-94,-21,-42, 
  /* [9][0][][] */ 0,-1,-26,3,-16,-14,12,-11,31,9,12,22,-17,-43,-21,12,-22,-88,-37,1,27,-16,-71,-70,-4,35,-65,4,12,-10,21,-9,-22,-127,-11,18,-4,-23,-74,-43,1,-20,77,-10,24,-10,-20,-34,-25,0,-13,-10,-44,-2,38,-71,-67,-6,31,-2,20,4,88,22,-45,-71,13,25,4,-18,-33,-22,0,-24,-57,-56,-104,4,9,-4,52,-8,16,-2,3,13,34,-17,61,9,-15,1,-42,26,21,31, 
  /* [10][0][][] */ -8,22,-29,-32,-69,-11,-95,-15,-55,-11,-78,6,-2,-38,-74,-45,-40,65,48,-28,126,-43,-44,18,-6,1,25,-121,66,-100,-32,-71,-52,-49,70,10,35,-48,113,125,37,31,-76,66,-80,71,57,-22,-61,-24,49,-38,6,-3,31,33,-16,5,-4,4,60,11,50,71,-80,-39,22,58,17,-33,-1,-127,48,-16,29,26,-3,6,38,-43,73,-67,30,110,-19,-55,41,68,21,28,47,42,-30,-56,27,51, 
  /* [11][0][][] */ 4,47,-18,-26,11,-38,-85,-20,-127,-3,44,-18,21,15,31,-75,36,14,39,-20,-56,15,19,-5,-17,-2,-15,-37,84,54,8,16,-17,-6,-24,-48,-17,28,79,20,119,54,-9,-27,18,9,-5,-6,56,-2,2,-8,-22,-2,23,20,2,-27,-4,4,25,-16,1,67,30,5,-124,89,18,-7,37,18,36,10,56,31,-31,-24,16,7,2,-9,-27,-109,18,-20,-11,72,-7,-4,29,58,46,-63,-20,15, 
  /* [12][0][][] */ 16,21,-50,21,4,29,-9,-6,-14,-4,-32,-31,-36,-17,-36,-30,14,-92,-26,42,19,-41,-94,61,-13,-71,-3,-3,-8,9,-60,0,57,-48,30,7,27,-12,-39,20,31,5,18,69,-33,7,77,-3,8,-2,-7,27,35,-19,-88,-52,-18,-26,-76,8,44,-43,34,35,35,-64,-21,39,-20,95,60,-11,0,4,-54,-31,101,-10,23,9,-98,-16,-40,-17,-47,127,9,12,89,-45,5,-33,7,-48,-26,-74, 
  /* [13][0][][] */ -8,-3,28,2,1,5,-12,1,-9,-1,-15,-2,7,14,-3,-7,7,33,-14,20,-10,4,48,19,-2,7,-67,6,-8,12,3,0,-5,-127,-15,-16,-7,6,23,-9,3,7,-22,-16,0,7,-20,16,0,5,-9,5,18,9,5,43,-73,12,-11,4,-6,4,54,2,35,-75,-16,14,-5,5,5,-1,2,1,13,14,39,5,-16,26,-2,25,6,28,-6,6,17,-10,-31,-8,11,4,-4,18,6,-19, 
  /* [14][0][][] */ 2,50,-61,-56,-20,-11,10,-19,-31,-79,2,22,50,-1,-29,-24,13,16,-6,-45,-109,-5,-16,-40,-1,2,-8,22,65,34,-2,-19,-14,-45,12,29,61,59,85,45,-32,73,-9,-26,7,54,-7,-7,-4,-7,-62,-8,-66,-4,-40,53,-13,80,-79,24,50,-111,8,-71,22,-10,42,-24,-25,0,97,-6,74,-5,-12,-4,-27,-57,23,69,6,31,-64,8,-4,127,24,68,19,-66,14,-9,-28,33,-12,-63, 
  /* [15][0][][] */ -28,34,-14,20,-14,25,27,-32,-29,18,-19,-24,49,7,20,3,39,-30,49,3,-8,-31,23,-5,9,-61,26,-21,67,31,-7,0,2,12,-28,31,34,-18,50,-52,8,-14,-29,21,14,11,-74,-14,-18,23,20,2,29,-11,-40,-73,31,-2,60,15,4,15,24,-6,-34,31,36,12,39,-9,13,-22,-4,32,70,-9,-1,19,-15,19,13,41,-7,-127,19,-49,-1,82,-47,20,-59,-4,-47,-3,39,21, 
};
const TfArray<4, int> tensor_dimension19 = { 4, { 16,1,1,96 } };
const TfArray<16, float> quant19_scale = { 16, { 0.011975849978625774, 0.036736857146024704, 0.022777961567044258, 0.020457722246646881, 0.01909790001809597, 0.030896592885255814, 0.023018073290586472, 0.0082909492775797844, 0.008993648923933506, 0.011648848652839661, 0.0081116212531924248, 0.01119170431047678, 0.010421399027109146, 0.018308568745851517, 0.024168688803911209, 0.027777796611189842, } };
const TfArray<16, int> quant19_zero = { 16, { 0,0,0,0,0,0,0,0,0,0,0,0,0,0,0,0 } };
const TfLiteAffineQuantization quant19 = { (TfLiteFloatArray*)&quant19_scale, (TfLiteIntArray*)&quant19_zero, 0 };
const ALIGN(16) int32_t tensor_data20[16] = { 16271, 45385, 41440, 8071, 34356, -6928, -16273, 52106, 35176, 82011, 14135, -39837, 10041, 5547, -9076, 12641, };
const TfArray<1, int> tensor_dimension20 = { 1, { 16 } };
const TfArray<16, float> quant20_scale = { 16, { 0.0002817847125697881, 0.00086439662845805287, 0.00053595204371958971, 0.00048135817633010447, 0.00044936235644854605, 0.00072697864379733801, 0.00054160173749551177, 0.00019508115656208247, 0.00021161527547519654, 0.00027409056201577187, 0.00019086168322246522, 0.00026333422283641994, 0.00024520940496586263, 0.00043078986345790327, 0.00056867505190894008, 0.00065359525615349412, } };
const TfArray<16, int> quant20_zero = { 16, { 0,0,0,0,0,0,0,0,0,0,0,0,0,0,0,0 } };
const TfLiteAffineQuantization quant20 = { (TfLiteFloatArray*)&quant20_scale, (TfLiteIntArray*)&quant20_zero, 0 };
const ALIGN(16) int8_t tensor_data21[96*1*1*16] = { 
  /* [0][0][][] */ -30,23,-22,37,15,-13,-4,8,-2,1,38,127,11,-5,24,-15, 
  /* [1][0][][] */ 86,16,-18,42,5,-5,-2,-127,64,4,-41,-29,-25,-12,7,-3, 
  /* [2][0][][] */ 38,-9,15,21,-22,24,-11,87,-44,-10,-42,-127,-48,-5,-24,-9, 
  /* [3][0][][] */ -26,-39,74,-29,7,6,7,-1,127,-14,40,-11,-104,16,20,8, 
  /* [4][0][][] */ -1,-28,28,-19,11,-9,-125,-110,78,16,-9,-127,71,-15,8,-75, 
  /* [5][0][][] */ -18,46,-73,2,0,35,40,-25,-65,127,-126,-46,50,-90,-31,-8, 
  /* [6][0][][] */ -67,11,-9,-13,-29,33,22,-127,-2,-19,45,90,47,-3,66,-11, 
  /* [7][0][][] */ 5,10,-10,-5,7,-1,-12,-5,77,-127,24,-46,26,67,-4,12, 
  /* [8][0][][] */ -25,10,-7,5,22,-19,-4,2,-22,-87,2,3,-36,-127,8,-16, 
  /* [9][0][][] */ 127,30,-2,-35,69,-116,-12,125,-22,12,59,23,-42,-71,28,-14, 
  /* [10][0][][] */ -16,121,-127,-42,32,-60,-44,105,87,35,10,124,-77,-24,-8,-19, 
  /* [11][0][][] */ 25,1,-6,61,16,-2,-12,127,-8,10,-35,11,-16,-5,-10,3, 
  /* [12][0][][] */ 3,127,51,-20,-7,2,-17,-7,-2,-4,10,-2,-2,-48,-17,-3, 
  /* [13][0][][] */ 49,-3,2,76,21,13,-25,91,-43,13,-15,-127,-49,-8,-5,21, 
  /* [14][0][][] */ -32,12,-15,-15,-18,14,15,-127,12,-2,74,-27,13,-12,18,-9, 
  /* [15][0][][] */ -52,40,-53,12,-127,29,-108,-23,-20,-33,-34,13,-95,-61,-21,103, 
  /* [16][0][][] */ -49,-11,25,60,43,-92,-33,28,127,12,-70,-19,35,10,21,16, 
  /* [17][0][][] */ -24,-5,10,-2,-16,-8,-14,-127,-23,3,85,98,53,3,32,10, 
  /* [18][0][][] */ 32,0,-10,53,22,-14,-7,127,-14,5,-28,19,-20,-3,-15,-5, 
  /* [19][0][][] */ -106,-6,28,18,18,80,-19,-24,-44,-12,-127,-76,-39,60,-23,-6, 
  /* [20][0][][] */ 76,-72,37,47,56,-127,-44,56,88,-20,105,45,101,-81,36,21, 
  /* [21][0][][] */ -7,0,2,16,15,-18,11,-10,-3,-79,14,-18,-6,-127,21,-15, 
  /* [22][0][][] */ 3,-19,-63,22,15,-52,24,-10,-40,-39,-2,16,-35,-127,-6,-26, 
  /* [23][0][][] */ -63,-9,-2,127,-2,0,4,-120,6,24,113,51,38,-8,-19,5, 
  /* [24][0][][] */ 16,-10,15,-127,17,-51,5,-67,53,-23,-46,-5,14,0,-9,11, 
  /* [25][0][][] */ -62,55,-20,36,-6,-26,31,-45,-80,-114,-88,10,-116,-127,2,-17, 
  /* [26][0][][] */ -72,12,-6,-54,-1,117,9,-64,125,27,17,-127,94,-52,28,-16, 
  /* [27][0][][] */ 7,-96,-51,-23,-127,62,-30,28,21,11,-21,18,24,-54,-15,77, 
  /* [28][0][][] */ 2,4,-14,-14,-10,29,12,19,20,7,-19,-127,-32,-7,-26,-3, 
  /* [29][0][][] */ 67,-40,109,32,0,7,71,45,-69,-29,-67,127,77,-15,-60,-4, 
  /* [30][0][][] */ -24,67,-87,-30,56,-99,-43,61,13,-66,15,100,-76,-127,2,-3, 
  /* [31][0][][] */ -71,8,-24,-12,52,-24,-9,3,-70,-100,-43,35,-90,-127,9,-47, 
  /* [32][0][][] */ -37,-25,20,-33,-58,57,-127,21,26,-18,41,-37,25,-94,-20,49, 
  /* [33][0][][] */ 44,11,-24,-127,-26,14,-15,32,-14,-20,-103,102,-12,-24,-25,29, 
  /* [34][0][][] */ -22,-12,18,51,26,-127,44,3,-98,-76,-38,48,-82,20,10,-79, 
  /* [35][0][][] */ -4,62,12,-10,-127,45,-83,-2,12,3,0,-4,-12,-60,-33,91, 
  /* [36][0][][] */ -127,-32,60,-90,10,-50,-19,21,-3,-9,49,-123,51,9,-10,17, 
  /* [37][0][][] */ -4,67,-23,-17,-23,-15,-11,-19,-30,73,-48,24,-51,127,-1,9, 
  /* [38][0][][] */ 20,-29,2,-22,2,23,-127,-39,17,9,0,-35,46,-14,11,-86, 
  /* [39][0][][] */ -24,5,-16,5,8,-22,-7,-1,-6,-79,-4,13,-32,-127,4,-8, 
  /* [40][0][][] */ -33,-22,32,81,28,-127,38,2,-56,-63,-83,55,-71,16,11,-42, 
  /* [41][0][][] */ -7,56,-75,4,19,-19,11,-42,-55,27,-107,-43,127,-39,-14,15, 
  /* [42][0][][] */ -48,50,-13,-58,-80,127,85,9,62,-11,-100,-75,42,-42,-11,-34, 
  /* [43][0][][] */ -63,26,-6,-46,-63,45,51,-102,34,-16,17,127,66,36,72,-38, 
  /* [44][0][][] */ 38,-18,23,-59,-24,2,-3,-14,-20,0,-29,-127,-20,3,-13,10, 
  /* [45][0][][] */ 32,2,3,59,-3,32,-6,127,-34,11,-40,0,-24,1,1,13, 
  /* [46][0][][] */ 127,-15,-14,40,10,12,-57,-36,-10,-5,-21,20,-32,-5,-75,-47, 
  /* [47][0][][] */ 28,122,127,-12,-30,30,-15,23,58,-23,51,-35,76,-109,-38,12, 
  /* [48][0][][] */ -21,9,0,-94,21,-6,28,-127,32,-20,35,59,18,-18,-31,-11, 
  /* [49][0][][] */ 96,-30,4,14,57,26,-34,86,-104,14,9,-38,-73,-2,-127,29, 
  /* [50][0][][] */ 38,-69,-8,-65,70,31,-32,63,75,92,106,-14,127,51,27,-28, 
  /* [51][0][][] */ 24,4,-10,60,17,1,-10,127,1,11,-29,16,-14,2,-17,3, 
  /* [52][0][][] */ 59,14,-29,-71,-13,56,7,-56,-127,-7,92,-10,-41,-19,-35,-6, 
  /* [53][0][][] */ -19,3,7,-13,11,-4,18,-46,-4,127,-78,-8,-2,-78,7,6, 
  /* [54][0][][] */ 60,29,-19,5,109,127,-5,-20,10,-5,-96,-41,-55,-10,-25,102, 
  /* [55][0][][] */ 90,-3,29,-53,23,17,-6,49,67,127,99,1,113,118,-13,0, 
  /* [56][0][][] */ -56,36,-58,1,21,6,2,56,28,23,6,127,-3,8,-27,-33, 
  /* [57][0][][] */ 22,46,-56,-44,13,-16,-19,37,36,102,12,70,-14,127,-1,2, 
  /* [58][0][][] */ -18,-115,-78,29,-127,31,-21,-36,-7,-27,-71,-14,-33,-25,-16,104, 
  /* [59][0][][] */ 1,-24,6,-6,47,7,13,25,27,-71,63,-21,34,-127,9,-32, 
  /* [60][0][][] */ -113,34,17,-41,81,-4,-57,-52,-127,-71,-83,117,-94,45,43,-43, 
  /* [61][0][][] */ 34,4,15,11,-19,-14,-21,-74,-77,-12,76,127,30,-1,73,26, 
  /* [62][0][][] */ -65,-21,-23,-76,100,-16,-3,-84,-127,-40,-8,-100,-90,13,51,-112, 
  /* [63][0][][] */ 105,38,-67,14,-52,-24,74,62,127,21,71,20,59,-73,-20,31, 
  /* [64][0][][] */ 11,13,7,45,14,-54,57,-49,-23,41,-41,-11,-21,127,5,-12, 
  /* [65][0][][] */ 10,16,-25,1,-12,33,2,29,35,-127,26,-33,22,68,-13,0, 
  /* [66][0][][] */ -14,34,25,25,-40,16,18,26,33,-16,-58,39,53,-3,127,0, 
  /* [67][0][][] */ -23,14,15,25,-50,-29,-1,-127,-7,-11,115,63,61,-3,101,4, 
  /* [68][0][][] */ -43,-12,26,61,20,-86,-36,76,127,0,-116,16,31,27,64,36, 
  /* [69][0][][] */ -57,2,29,-7,13,-63,127,-54,25,-14,17,-94,-47,10,-6,113, 
  /* [70][0][][] */ -40,52,-78,37,-15,3,-5,-52,14,-93,18,-74,127,39,0,-3, 
  /* [71][0][][] */ -40,-25,17,14,29,7,27,28,59,12,-56,-20,5,-6,-127,-22, 
  /* [72][0][][] */ 38,-127,-112,-79,10,39,-5,83,62,67,61,35,55,52,8,-4, 
  /* [73][0][][] */ 19,13,34,42,25,-67,72,-45,9,64,-31,-19,17,127,-4,-27, 
  /* [74][0][][] */ 31,-6,-30,33,-115,7,127,-46,-37,-8,-43,-1,-49,77,-55,-16, 
  /* [75][0][][] */ -21,15,16,4,7,-26,118,-14,15,-18,25,-32,-87,23,1,127, 
  /* [76][0][][] */ 10,59,-101,-49,42,-85,-34,60,49,30,19,127,-36,17,-2,5, 
  /* [77][0][][] */ -59,-33,51,14,6,24,13,-127,94,113,43,-35,-95,-53,24,6, 
  /* [78][0][][] */ 14,-3,8,22,-127,-54,28,-14,-4,-29,-34,-26,-9,-36,-62,29, 
  /* [79][0][][] */ -7,5,-3,127,-10,17,-7,-1,-47,32,86,-89,-9,-17,-1,-8, 
  /* [80][0][][] */ -87,24,8,17,-48,40,58,-61,127,-14,-42,-96,23,8,29,-27, 
  /* [81][0][][] */ -3,-18,34,74,-8,-127,40,-13,-31,-27,-55,41,-69,19,-3,-12, 
  /* [82][0][][] */ -13,1,-19,-13,22,-33,3,40,-16,-77,-53,66,-39,-127,-6,-4, 
  /* [83][0][][] */ 112,-53,85,8,73,-127,-91,-30,-105,50,38,-71,-55,25,-126,68, 
  /* [84][0][][] */ 67,-29,24,-127,1,-44,-12,-9,-2,-30,-84,39,8,-2,-6,21, 
  /* [85][0][][] */ 44,2,1,-115,29,-28,-3,85,32,-15,-106,-127,-38,-10,1,-13, 
  /* [86][0][][] */ -127,-34,47,-96,2,-16,-17,74,-54,6,64,-55,45,4,2,33, 
  /* [87][0][][] */ -38,0,-6,-63,10,-23,7,-127,35,-8,44,33,30,-8,-3,-12, 
  /* [88][0][][] */ 86,-23,37,47,40,-127,-100,-11,-88,33,17,-7,-60,-2,-104,79, 
  /* [89][0][][] */ -30,15,-23,41,11,-8,-4,0,-6,0,46,127,13,-7,21,-10, 
  /* [90][0][][] */ 38,10,-10,-20,-9,2,-3,17,15,91,12,31,29,127,-4,14, 
  /* [91][0][][] */ 91,-43,24,1,127,-122,-4,42,63,-21,103,14,55,-77,48,-19, 
  /* [92][0][][] */ 37,60,-89,-43,37,-54,-31,67,35,104,24,109,-22,127,4,6, 
  /* [93][0][][] */ -103,-15,2,68,-3,-2,-6,49,105,24,-74,127,46,25,-75,4, 
  /* [94][0][][] */ 32,-35,17,4,127,50,-95,7,23,26,-9,10,25,-26,-16,87, 
  /* [95][0][][] */ -30,12,-14,3,18,-30,-9,6,-23,-87,-4,15,-46,-127,5,-18, 
};
const TfArray<4, int> tensor_dimension21 = { 4, { 96,1,1,16 } };
const TfArray<96, float> quant21_scale = { 96, { 0.00086122029460966587, 0.0015741691458970308, 0.0006447335472330451, 0.00094140390865504742, 0.0011265404755249619, 0.0020532370544970036, 0.00073023949516937137, 0.00099673320073634386, 0.00071781798033043742, 0.00046353539801202714, 0.00034934430732391775, 0.00093361845938488841, 0.00069740170147269964, 0.0017569413175806403, 0.0021800894755870104, 0.0017553084762766957, 0.0008030853932723403, 0.0021892797667533159, 0.00093896134058013558, 0.0007868852699175477, 0.0004474697052501142, 0.0012349812313914299, 0.00099189265165477991, 0.0016284143785014749, 0.0019797112327069044, 0.00038047149428166449, 0.00079231528798118234, 0.00069487089058384299, 0.0019328882917761803, 0.00049005536129698157, 0.00029523076955229044, 0.00044421100756153464, 0.0010114782489836216, 0.00043870700756087899, 0.00056023651268333197, 0.00059565930860117078, 0.0013039985205978155, 0.00079090014332905412, 0.0019347097259014845, 0.00056650739861652255, 0.00066096923546865582, 0.00082873512292280793, 0.00069160066777840257, 0.00060893513727933168, 0.00096598995150998235, 0.0031870275270193815, 0.0029840481001883745, 0.00049368175677955151, 0.0016758834244683385, 0.0019967374391853809, 0.0017781542846933007, 0.0010288647608831525, 0.00095288461307063699, 0.00095600140048190951, 0.00086850061779841781, 0.00052288477309048176, 0.0007854861905798316, 0.00070636835880577564, 0.00087294378317892551, 0.0009838819969445467, 0.00027015694649890065, 0.0028694907668977976, 0.00076527916826307774, 0.00063693954143673182, 0.0031903618946671486, 0.0042237099260091782, 0.00075764680514112115, 0.0010806407080963254, 0.0012457466218620539, 0.00080116698518395424, 0.0016444221837446094, 0.0010198025265708566, 0.00072076061042025685, 0.0014197870623320341, 0.00060846202541142702, 0.001616543042473495, 0.00063836539629846811, 0.0018069526413455606, 0.0010826002107933164, 0.0020013432949781418, 0.0010815716814249754, 0.0015370490727946162, 0.00050641666166484356, 0.00042417421354912221, 0.0016425002831965685, 0.00075948808807879686, 0.0021756417118012905, 0.0016535843024030328, 0.00063515495276078582, 0.00090205238666385412, 0.00064586009830236435, 0.00041152784251607955, 0.00046982738422229886, 0.0026657846756279469, 0.00075709272641688585, 0.00053150742314755917, } };
const TfArray<96, int> quant21_zero = { 96, { 0,0,0,0,0,0,0,0,0,0,0,0,0,0,0,0,0,0,0,0,0,0,0,0,0,0,0,0,0,0,0,0,0,0,0,0,0,0,0,0,0,0,0,0,0,0,0,0,0,0,0,0,0,0,0,0,0,0,0,0,0,0,0,0,0,0,0,0,0,0,0,0,0,0,0,0,0,0,0,0,0,0,0,0,0,0,0,0,0,0,0,0,0,0,0,0 } };
const TfLiteAffineQuantization quant21 = { (TfLiteFloatArray*)&quant21_scale, (TfLiteIntArray*)&quant21_zero, 0 };
const ALIGN(16) int32_t tensor_data22[96] = { 3435, -1514, 4186, -1577, -4784, 2839, 4579, -1601, 5782, 6060, 6861, 5531, -2982, -190, -2234, -643, -1094, 938, 4061, 4749, 2097, 3570, -9161, 4943, -535, 2139, -5996, 161, -2355, 9220, 8942, 4684, -1894, 22500, -13615, -659, -3793, 994, -1586, 6069, -5206, -1497, 6897, 6855, 7024, 2442, 1398, 28205, 2953, 3301, 1351, 4800, 803, -1259, -752, -933, 5077, 5847, -1182, 100, 16392, 3381, -8645, 6955, 602, 1252, 3368, -1277, 4105, -3245, -2618, 1493, -915, -2289, -45, -1041, 9907, -3979, -1656, 1228, -2370, -539, 3465, -4629, 3943, -2205, -1490, -2007, 647, 2961, 9586, -5964, 7441, 3737, 287, 5931, };
const TfArray<1, int> tensor_dimension22 = { 1, { 96 } };
const TfArray<96, float> quant22_scale = { 96, { 0.00029657970299012959, 0.00054209894733503461, 0.00022202784020919353, 0.0003241926315240562, 0.00038794838474132121, 0.00070707628037780523, 0.00025147365522570908, 0.0003432464727666229, 0.00024719603243283927, 0.00015962836914695799, 0.00012030421203235164, 0.00032151155755855143, 0.00024016524548642337, 0.00060504046268761158, 0.0007507606060244143, 0.00060447817668318748, 0.0002765597018878907, 0.00075392547296360135, 0.00032335150172002614, 0.00027098084683530033, 0.00015409580373670906, 0.00042529229540377855, 0.00034157952177338302, 0.00056077947374433279, 0.00068175606429576874, 0.00013102352386340499, 0.00027285076794214547, 0.00023929370217956603, 0.00066563155269250274, 0.00016876107838470489, 0.00010166905121877789, 0.00015297360369004309, 0.00034832424717023969, 0.00015107817307580262, 0.00019292946672067046, 0.00020512807532213628, 0.00044905988033860922, 0.00027236345340497792, 0.00066625885665416718, 0.00019508898549247533, 0.00022761894797440618, 0.00028539274353533983, 0.00023816754401195794, 0.00020969989418517798, 0.00033265937236137688, 0.0010975213954225183, 0.0010276209795847535, 0.0001700099091976881, 0.00057712645502761006, 0.00068761938018724322, 0.00061234558233991265, 0.00035431166179478168, 0.00032814627047628164, 0.00032921961974352598, 0.00029908682336099446, 0.00018006659229286015, 0.0002704990329220891, 0.00024325310369022191, 0.00030061692814342678, 0.00033882088609971106, 9.3034344899933785e-05, 0.00098817073740065098, 0.00026354030705988407, 0.00021934379765298218, 0.0010986695997416973, 0.0014545251615345478, 0.00026091194013133645, 0.00037214183248579502, 0.00042899959953501821, 0.00027589904493652284, 0.00056629208847880363, 0.00035119088715873659, 0.00024820939870551229, 0.00048893416533246636, 0.00020953695639036596, 0.00055669131688773632, 0.00021983482292853296, 0.00062226294539868832, 0.00037281663389876485, 0.00068920553894713521, 0.0003724624402821064, 0.0005293158465065062, 0.00017439544899389148, 0.00014607349294237792, 0.0005656302091665566, 0.00026154602528549731, 0.00074922892963513732, 0.00056944723473861814, 0.00021872924116905779, 0.00031064110225997865, 0.00022241579426918179, 0.00014171845396049321, 0.00016179514932446182, 0.00091802020324394107, 0.0002607211354188621, 0.00018303599790669978, } };
const TfArray<96, int> quant22_zero = { 96, { 0,0,0,0,0,0,0,0,0,0,0,0,0,0,0,0,0,0,0,0,0,0,0,0,0,0,0,0,0,0,0,0,0,0,0,0,0,0,0,0,0,0,0,0,0,0,0,0,0,0,0,0,0,0,0,0,0,0,0,0,0,0,0,0,0,0,0,0,0,0,0,0,0,0,0,0,0,0,0,0,0,0,0,0,0,0,0,0,0,0,0,0,0,0,0,0 } };
const TfLiteAffineQuantization quant22 = { (TfLiteFloatArray*)&quant22_scale, (TfLiteIntArray*)&quant22_zero, 0 };
const ALIGN(16) int8_t tensor_data23[1*3*3*96] = { 
  /* [0][0][][] */ 95,-70,-91,52,69,-59,-94,-71,107,62,-87,-79,46,-67,-65,-65,60,-56,96,89,-72,108,127,46,57,50,53,43,60,54,-35,-98,-55,-66,68,-62,35,48,-54,-67,-54,48,-64,56,70,-60,-94,50,-61,-89,-58,13,49,64,-39,56,64,20,-77,-57,-78,-87,89,71,-70,-51,70,77,-67,53,76,69,-43,-77,-49,-38,40,40,-78,-40,56,-76,42,61,-49,64,-61,54,-100,-34,-39,66,1,-72,-79,-31, -84,-88,-127,91,80,-84,22,-85,84,92,-116,-118,96,-93,-91,-97,93,-88,127,127,-97,-53,123,72,78,79,74,89,86,87,-125,-15,-86,-127,89,-92,81,73,-101,66,-83,86,-79,-93,11,-94,-88,89,-82,-112,-96,19,80,87,-66,77,87,118,-106,-82,-127,-114,126,92,-107,-85,82,109,-93,88,93,98,-81,-108,-71,-74,-18,85,-106,-63,78,-104,64,81,-85,88,-76,88,-119,94,-50,97,127,-107,-100,115, -19,-36,-83,53,26,-42,50,-34,-3,39,13,-79,53,-79,-45,-61,39,-43,67,68,-41,-51,52,39,36,36,37,40,41,43,45,75,-52,-67,32,-47,60,34,-71,47,-35,52,-43,21,-79,-38,-32,41,-35,-69,-45,1,39,40,-34,33,41,41,-59,-35,-56,-53,62,44,-59,-42,39,33,-41,47,37,49,-46,-40,-29,-52,-89,52,-56,-32,32,-60,24,34,-35,47,-35,44,-60,-68,68,48,45,-51,-64,113, 
  /* [0][1][][] */ 127,-85,34,95,86,-86,-127,-88,45,83,-127,89,107,-78,-91,-100,86,-88,-21,-6,-94,127,114,77,96,78,89,92,91,86,127,-127,-97,-120,96,-94,77,79,-103,59,-90,87,-95,89,104,-100,-113,87,-82,-115,-99,-87,79,84,-79,90,96,109,-102,-87,17,-102,106,91,-109,-77,105,88,-81,80,98,86,-83,-106,-86,-90,23,62,-111,-85,88,-100,71,90,-87,93,-85,86,-108,-45,51,91,-117,-91,-112,-114, -118,-127,45,127,127,-127,44,-127,-127,127,59,127,127,-119,-127,-127,127,-127,-22,-9,-127,-97,97,127,127,127,127,127,127,127,-103,8,-127,-110,127,-127,127,127,-127,127,-127,127,-127,-127,33,-127,-127,127,-127,-127,-127,-127,127,127,-127,127,127,18,-127,-127,45,-127,127,127,-127,-127,127,127,-127,127,127,127,-127,-127,-127,-127,127,127,-127,-127,127,-127,127,127,-127,127,-127,127,-127,127,-127,127,-28,-127,-127,-127, -17,-74,12,58,71,-64,79,-67,-75,50,117,69,64,-127,-64,-84,57,-65,-27,-21,-57,-47,70,66,53,59,67,50,62,58,-100,112,-82,-47,55,-62,72,62,-79,-52,-56,63,-74,48,-127,-50,-90,51,-55,-106,-68,-81,63,71,-62,55,59,-110,-85,-56,28,-56,76,61,-91,-75,62,35,-78,67,67,61,-62,-65,-72,-77,-14,80,-68,-59,61,-81,58,54,-69,70,-78,56,-103,-95,-37,59,87,-62,-89,54, 
  /* [0][2][][] */ 69,-36,56,54,23,-42,-80,-37,-44,31,7,-22,68,-38,-41,-62,32,-54,-85,-77,-46,65,72,35,47,38,41,55,46,38,80,-73,-59,-24,30,-48,49,39,-65,48,-39,47,-36,54,70,-54,-45,39,-33,-52,-50,65,42,40,-43,43,47,15,-63,-43,49,-58,45,45,-65,-46,50,40,-34,32,43,36,-51,-34,-43,-69,-81,22,-60,-52,40,-56,31,39,-50,41,-42,45,-48,-25,82,38,-16,-40,-53,28, -70,-69,89,67,68,-66,29,-71,-72,48,112,-28,65,-66,-65,-84,48,-73,-98,-105,-68,-64,83,59,62,64,60,61,60,59,75,37,-90,-50,42,-67,70,69,-73,-50,-53,65,-52,-67,24,-61,-90,49,-54,-70,-74,97,64,68,-64,69,63,-127,-81,-64,73,-79,51,69,-95,-82,60,46,-74,61,62,55,-67,-55,-67,-85,12,52,-66,-64,62,-81,60,59,-84,55,-82,63,-65,67,28,58,-94,-62,-73,-87, -12,-42,48,19,49,-35,50,-36,41,22,4,-11,16,-66,-26,-39,24,-36,-63,-61,-26,-13,40,35,27,33,32,9,32,24,-15,67,-45,35,20,-25,29,37,-20,-80,-22,23,-31,7,-76,-20,-69,12,-26,-44,-31,63,34,34,-26,31,29,-46,-40,-30,35,-28,40,35,-53,-54,32,-4,-40,30,36,29,-26,-17,-39,-31,42,35,-33,-36,29,-42,30,24,-27,32,-51,26,-40,-50,-26,27,-15,-32,-42,-26, 
};
const TfArray<4, int> tensor_dimension23 = { 4, { 1,3,3,96 } };
const TfArray<96, float> quant23_scale = { 96, { 0.0074411989189684391, 0.0031937782187014818, 0.0062062940560281277, 0.0039757802151143551, 0.0040677855722606182, 0.0014771781861782074, 0.00610774802044034, 0.0045009586028754711, 0.0064999405294656754, 0.0025213989429175854, 0.0063727716915309429, 0.0063235573470592499, 0.0046177809126675129, 0.0015790389152243733, 0.0034307066816836596, 0.0028625982813537121, 0.0044289520010352135, 0.0015864112647250295, 0.0046761236153542995, 0.0037540621124207973, 0.003568136366084218, 0.0036134128458797932, 0.0061739757657051086, 0.0013296655379235744, 0.0023416029289364815, 0.0043969531543552876, 0.0056939716450870037, 0.004340821411460638, 0.0043669603765010834, 0.0028841556049883366, 0.0068007451482117176, 0.0063377739861607552, 0.0046017351560294628, 0.01310501154512167, 0.0094329062849283218, 0.0051073492504656315, 0.0039129722863435745, 0.0034366878680884838, 0.002321701031178236, 0.0064456476829946041, 0.0059241415001451969, 0.004285899456590414, 0.0019778800196945667, 0.0048811361193656921, 0.0045462534762918949, 0.0018851372878998518, 0.0042420146055519581, 0.0034240465611219406, 0.0017688866937533021, 0.0019454848952591419, 0.0036300523206591606, 0.0067543135955929756, 0.0031038459856063128, 0.0044014975428581238, 0.0031301856506615877, 0.004067074041813612, 0.0022196404170244932, 0.0041246199980378151, 0.0030263753142207861, 0.0032365040387958288, 0.009789573960006237, 0.0021777239162474871, 0.004809454083442688, 0.0026416077744215727, 0.0032699005678296089, 0.0014496499206870794, 0.002712625078856945, 0.0019149649888277054, 0.001731515396386385, 0.0042321542277932167, 0.003961651585996151, 0.0024870901834219694, 0.0024791541509330273, 0.0036588595248758793, 0.0033547489438205957, 0.0054578795097768307, 0.004602410364896059, 0.0051371087320148945, 0.0030877511017024517, 0.0016511952271685004, 0.0034844742622226477, 0.0031186162959784269, 0.004072084091603756, 0.0036933515220880508, 0.0017541589913889766, 0.0037237843498587608, 0.002917425474151969, 0.0042910128831863403, 0.0034661614336073399, 0.0069897710345685482, 0.0073387119919061661, 0.0051052677445113659, 0.0053989621810615063, 0.0013889509718865156, 0.0038498144131153822, 0.0067613972350955009, } };
const TfArray<96, int> quant23_zero = { 96, { 0,0,0,0,0,0,0,0,0,0,0,0,0,0,0,0,0,0,0,0,0,0,0,0,0,0,0,0,0,0,0,0,0,0,0,0,0,0,0,0,0,0,0,0,0,0,0,0,0,0,0,0,0,0,0,0,0,0,0,0,0,0,0,0,0,0,0,0,0,0,0,0,0,0,0,0,0,0,0,0,0,0,0,0,0,0,0,0,0,0,0,0,0,0,0,0 } };
const TfLiteAffineQuantization quant23 = { (TfLiteFloatArray*)&quant23_scale, (TfLiteIntArray*)&quant23_zero, 3 };
const ALIGN(16) int32_t tensor_data24[96] = { -86, 27380, -1249, 7840, 2892, 77365, -1541, 54246, 1772, 345, 112, 1913, -64, 46673, 63237, 21119, -35, 48951, 1128, -924, 24477, 151, 22, 22300, 384, 1209, 2313, 18186, -170, -7370, 1179, 160, 11702, 66762, 982, 16099, -1117, 170, 24908, -5199, 14369, 234, 64872, -2040, -5141, 43561, 10730, -55159, 137488, 34668, 23995, 920, -135, 156, 55523, 1420, -64, -1798, 25680, 67252, 640, 47919, -776, 551, 25048, 63874, 281, 14935, 53633, 9562, -6150, 649, 70012, 12050, 47929, 12361, -3421, 8083, 19849, 149889, 8624, 25821, 834, 9404, 65244, -104, 22088, -124, 17548, 170, 4161, 57, 317, 48149, 17964, 2648, };
const TfArray<1, int> tensor_dimension24 = { 1, { 96 } };
const TfArray<96, float> quant24_scale = { 96, { 0.00017508704331703484, 7.5147727329749614e-05, 0.00014603044837713242, 9.3547772848978639e-05, 9.5712603069841862e-05, 3.4757133107632399e-05, 0.00014371171710081398, 0.00010590491001494229, 0.00015293978503905237, 5.9327034250600263e-05, 0.00014994757657404989, 0.00014878959336783737, 0.0001086536722141318, 3.7153859011596069e-05, 8.0722515122033656e-05, 6.7355256760492921e-05, 0.00010421063780086115, 3.7327325117075816e-05, 0.00011002644168911502, 8.8330874859821051e-05, 8.3956154412589967e-05, 8.5021478298585862e-05, 0.00014527002349495888, 3.1286250305129215e-05, 5.509654147317633e-05, 0.00010345772170694545, 0.00013397580187302083, 0.00010213697532890365, 0.00010275201202603057, 6.786248559365049e-05, 0.00016001753101591021, 0.00014912409824319184, 0.00010827612277353182, 0.00030835322104394436, 0.00022195074416231364, 0.00012017292465316132, 9.2069938546046615e-05, 8.0863246694207191e-05, 5.4628260841127485e-05, 0.0001516623015049845, 0.00013939157361164689, 0.00010084469249704853, 4.6538352762581781e-05, 0.00011485026334412396, 0.00010697067045839503, 4.4356173020787537e-05, 9.9812110420316458e-05, 8.0565805546939373e-05, 4.1620864067226648e-05, 4.5776116166962311e-05, 8.5412997577805072e-05, 0.00015892503142822534, 7.3031675128731877e-05, 0.00010356464918004349, 7.3651426646392792e-05, 9.5695861091371626e-05, 5.2226834668545052e-05, 9.7049887699540704e-05, 7.1208829467650503e-05, 7.6153039117343724e-05, 0.00023034292098600417, 5.1240564062027261e-05, 0.00011316363088553771, 6.2155479099601507e-05, 7.693883526371792e-05, 3.4109409170923755e-05, 6.3826475525274873e-05, 4.5058000978315249e-05, 4.0741539123700932e-05, 9.9580101959872991e-05, 9.3215334345586598e-05, 5.8519770391285419e-05, 5.8333040215075016e-05, 8.6090811237227172e-05, 7.8935270721558481e-05, 0.00012842069554608315, 0.0001082920134649612, 0.0001208731482620351, 7.2652968810871243e-05, 3.8851652789162472e-05, 8.1987629528157413e-05, 7.3379211244173348e-05, 9.5813746156636626e-05, 8.6902393377386034e-05, 4.1274328395957127e-05, 8.7618456745985895e-05, 6.8645305873360485e-05, 0.00010096500773215666, 8.1556740042287856e-05, 0.00016446520749013871, 0.00017267557268496603, 0.00012012395018246025, 0.00012703440734185278, 3.2681200536899269e-05, 9.0583867859095335e-05, 0.00015909170906525105, } };
const TfArray<96, int> quant24_zero = { 96, { 0,0,0,0,0,0,0,0,0,0,0,0,0,0,0,0,0,0,0,0,0,0,0,0,0,0,0,0,0,0,0,0,0,0,0,0,0,0,0,0,0,0,0,0,0,0,0,0,0,0,0,0,0,0,0,0,0,0,0,0,0,0,0,0,0,0,0,0,0,0,0,0,0,0,0,0,0,0,0,0,0,0,0,0,0,0,0,0,0,0,0,0,0,0,0,0 } };
const TfLiteAffineQuantization quant24 = { (TfLiteFloatArray*)&quant24_scale, (TfLiteIntArray*)&quant24_zero, 0 };
const ALIGN(16) int8_t tensor_data25[16*1*1*96] = { 
  /* [0][0][][] */ -3,5,-1,7,4,3,-1,-1,-4,10,6,-2,-12,6,-1,40,-2,0,-3,3,10,-3,-7,-3,7,-127,2,-17,-3,-2,-3,-12,12,1,2,16,1,105,1,-5,0,-1,6,-3,0,3,0,-16,1,5,-16,-1,7,2,-4,79,21,-8,3,75,-5,-3,-26,70,-12,4,3,1,0,-5,5,1,-45,-7,-11,6,1,4,25,11,-8,6,-124,0,-5,-1,5,2,3,-1,0,-15,1,5,3,-7, 
  /* [1][0][][] */ 35,-33,21,-10,-15,41,15,-52,40,-8,50,25,102,-6,-31,-25,71,0,28,27,-65,11,1,7,0,42,-33,-73,32,14,1,10,-12,-19,-9,-88,31,77,23,37,13,-2,-2,4,38,7,-4,127,-10,-7,18,23,2,70,-41,6,60,38,75,75,-2,-8,2,-7,-17,17,-28,13,-70,-17,48,-47,81,-24,-28,16,-6,39,3,24,10,17,-28,-14,10,7,-12,3,-4,25,-3,77,-5,-21,-30,-3, 
  /* [2][0][][] */ -99,21,40,15,23,19,37,-17,6,-64,-4,-88,61,-52,88,-29,-11,-38,-61,25,80,-5,19,-26,39,31,25,-70,-66,-51,-6,4,59,36,37,-38,28,3,34,7,-64,18,-25,13,-81,19,24,98,-14,49,-68,-83,-10,39,-39,127,-22,14,17,45,40,57,14,-40,39,-8,44,124,29,-20,11,50,-53,44,54,12,-10,11,-64,-78,-11,-80,-1,-20,41,91,24,23,69,-95,0,-76,-2,12,18,-4, 
  /* [3][0][][] */ -10,-10,-13,-72,-28,-91,-11,40,-4,127,-1,-1,65,5,-18,1,-27,-39,-7,-15,9,-15,-1,-8,24,12,22,-63,-3,114,-5,-24,8,22,-8,-42,-20,56,-11,-7,12,-87,77,3,-17,-25,-50,10,14,-19,-4,1,-59,-85,88,54,85,-8,49,44,3,-25,5,-55,-7,-69,-4,-17,58,18,-112,-33,28,11,38,-24,-9,-90,-26,25,31,18,61,3,-54,20,-20,38,-31,2,-10,-26,-12,-7,2,-3, 
  /* [4][0][][] */ -22,19,30,-66,-31,-20,-38,42,15,-127,16,34,-18,47,-75,-7,84,-54,48,7,17,-42,9,117,32,-2,44,-9,55,-87,-1,-24,17,52,24,13,4,-35,26,8,-19,-60,-36,-47,-23,25,83,9,-67,74,3,21,-64,-15,51,-18,66,6,-9,-18,29,-50,-31,11,21,-4,66,11,-32,-47,-23,-104,-34,24,48,28,-9,-28,23,53,59,-6,11,50,9,-33,10,67,-31,-22,-22,-6,-11,-32,39,-13, 
  /* [5][0][][] */ 14,-4,-3,9,-11,-11,13,-14,1,-21,4,25,-22,-55,-36,5,-15,-59,9,2,9,11,2,104,-94,11,-16,-14,41,-8,2,6,9,40,-4,18,-4,45,1,-3,11,5,32,27,7,-67,66,-30,57,-52,13,18,-15,-12,-15,-7,5,1,-6,38,6,-56,21,-109,-2,-3,-16,11,25,4,-18,0,7,0,17,-8,-2,-11,6,-127,-10,3,-7,31,85,-57,4,7,-15,27,5,7,5,-10,-3,7, 
  /* [6][0][][] */ -4,6,6,13,16,-5,2,-3,15,90,14,-11,-10,4,-7,-59,-27,-9,-6,5,28,19,33,24,1,5,1,4,-16,-127,15,18,-26,-11,2,-26,3,9,-3,15,-1,9,23,2,-2,15,-20,-27,-25,3,-12,-6,40,-2,-7,-5,86,12,-36,6,0,-11,-24,48,-8,1,-45,11,8,-2,1,-21,-43,-21,2,-4,7,4,7,6,-26,2,23,13,4,-17,0,-2,-1,1,14,-43,12,-5,8,18, 
  /* [7][0][][] */ 32,20,-7,17,-20,-12,8,-3,0,-1,8,18,7,4,27,-10,38,35,6,-32,47,25,11,-17,-48,-22,71,16,10,-27,6,26,-12,-9,58,-12,-17,-15,-2,7,-72,-1,-7,9,21,-37,12,39,82,-28,10,20,-31,3,56,-10,127,5,12,-37,18,11,-18,44,-12,5,-1,-52,-38,-19,2,57,11,-19,64,22,2,3,-4,-16,-12,-46,-23,7,43,4,-8,-12,-28,34,9,-54,5,-37,35,7, 
  /* [8][0][][] */ 8,-94,-39,-45,-47,-21,-36,-114,57,7,30,10,23,59,26,1,-76,63,3,-15,3,6,0,34,-26,4,40,-9,-60,-53,-46,34,22,0,-2,-1,55,-8,21,62,-13,-47,-45,-22,-2,25,-9,7,15,9,-5,3,13,109,41,39,-67,62,7,-23,19,4,19,-33,11,-47,15,-19,44,-25,-32,44,-10,19,19,12,-51,-16,-12,11,41,-14,-22,87,-21,-127,-65,-93,-30,13,-50,-2,-44,21,-14,-52, 
  /* [9][0][][] */ -5,-7,24,21,19,-2,35,-15,-1,-117,-1,-53,-30,3,-39,30,22,-32,-40,-2,-11,34,-3,55,65,-74,66,75,-62,127,0,34,-4,-28,80,53,17,2,-27,13,-108,14,-30,20,14,84,-37,-28,-101,55,7,-44,-26,22,17,7,42,14,-42,-48,38,15,38,-93,-36,-15,-118,75,-7,11,37,41,-6,-38,43,-13,21,28,4,41,4,-102,6,86,-33,6,-25,-10,-40,-14,15,34,13,-51,-44,1, 
  /* [10][0][][] */ 127,4,-21,-14,-31,35,18,23,-15,-52,8,60,-57,10,-90,-6,37,2,57,-47,5,2,68,3,-21,67,-6,-25,63,75,9,30,101,-19,6,60,-21,-58,2,3,10,-12,23,20,114,-10,1,25,-36,-43,-72,61,53,-25,12,105,5,-9,-52,95,-35,-45,35,-25,82,42,-67,-109,-33,-6,41,-35,-44,62,20,6,7,31,-106,43,-49,6,5,-41,-23,69,3,64,-57,103,0,-19,2,1,15,0, 
  /* [11][0][][] */ -17,8,-23,28,-1,31,-23,-10,-23,-41,-23,-29,-9,51,57,-5,-29,36,-31,-23,34,-6,-10,5,3,58,-49,-13,-75,-7,-8,-9,0,-20,-48,-7,-20,16,11,-22,57,26,9,-18,-17,33,12,-11,-29,37,0,-23,3,-4,-50,-10,127,-16,-7,34,-41,15,17,-87,11,25,71,-52,19,9,30,67,8,12,-43,-6,-1,24,-9,49,8,40,-4,-25,9,-43,25,-52,48,-10,-4,-31,-5,-12,3,-4, 
  /* [12][0][][] */ -6,-2,-6,14,-3,-6,5,-3,-7,1,-7,-10,19,-6,11,7,-20,-26,-15,17,-19,-2,-6,58,-26,-10,-20,-8,-39,54,-4,-1,11,-3,-13,-8,-1,-64,-2,-4,18,5,46,9,-6,-3,22,18,1,4,-13,-6,-24,3,-17,19,19,-3,20,-46,-5,-24,-30,127,14,0,17,6,32,5,-3,35,1,13,-6,-9,-3,1,-12,-25,-7,12,12,7,30,-43,4,-9,20,2,-4,9,-2,-26,-24,-2, 
  /* [13][0][][] */ -11,6,18,88,32,14,-43,-21,1,0,-23,45,2,42,36,-7,-6,30,50,41,-29,-20,15,6,-28,30,27,-8,-3,-6,34,-16,28,-16,12,11,-31,0,-49,-12,-24,108,-15,-27,-8,-19,16,9,57,19,-20,34,-16,26,22,47,6,2,-12,-4,56,-12,27,-29,14,3,74,28,-9,62,-18,-59,1,11,18,-33,42,-16,-6,3,15,-24,-23,37,-3,-127,-1,-69,-13,-7,38,31,50,4,-5,48, 
  /* [14][0][][] */ 13,20,-44,28,49,-41,19,77,-52,-14,-8,-28,77,7,-64,-15,5,34,-41,-20,-45,24,0,53,17,7,9,-67,-19,-92,60,17,15,46,-31,-31,-41,43,-48,-44,26,38,-55,14,19,50,12,45,-25,4,7,-32,-82,-84,19,21,-58,-42,41,49,-17,40,-11,-8,13,3,-98,34,10,82,-31,86,6,22,-16,-23,54,-36,-23,12,127,22,12,110,-21,-29,19,-67,-58,11,52,64,51,-9,-79,53, 
  /* [15][0][][] */ -26,-39,4,-45,-18,-23,13,-29,25,47,20,-18,-104,-41,-19,-3,64,-14,-16,36,-56,4,12,-8,20,23,-30,23,27,-8,-6,15,37,-10,-33,66,28,-17,10,28,42,-37,-21,15,-26,-17,-22,-113,32,-10,-23,-17,-127,29,-25,-8,56,23,-79,37,11,20,-13,6,32,-26,-27,65,-29,-18,-28,-4,-59,29,-50,-12,-16,-20,2,-22,76,24,40,26,-9,1,-21,-34,-23,-21,-19,56,-11,-23,-65,-23, 
};
const TfArray<4, int> tensor_dimension25 = { 4, { 16,1,1,96 } };
const TfArray<16, float> quant25_scale = { 16, { 0.024874802678823471, 0.022393256425857544, 0.018777647987008095, 0.01947561651468277, 0.012718275189399719, 0.017679542303085327, 0.023321771994233131, 0.020590052008628845, 0.019515641033649445, 0.013798256404697895, 0.017476882785558701, 0.018155626952648163, 0.023593101650476456, 0.022747842594981194, 0.016124671325087547, 0.019316017627716064, } };
const TfArray<16, int> quant25_zero = { 16, { 0,0,0,0,0,0,0,0,0,0,0,0,0,0,0,0 } };
const TfLiteAffineQuantization quant25 = { (TfLiteFloatArray*)&quant25_scale, (TfLiteIntArray*)&quant25_zero, 0 };
const ALIGN(16) int32_t tensor_data26[16] = { -9077, -27360, -4244, -38804, -6545, 28499, 9018, -39884, 27425, 17228, -8132, -16992, -13003, -32674, -22064, 40088, };
const TfArray<1, int> tensor_dimension26 = { 1, { 16 } };
const TfArray<16, float> quant26_scale = { 16, { 0.00058528949739411473, 0.00052690017037093639, 0.00044182702549733222, 0.00045824982225894928, 0.00029925353010185063, 0.00041598922689445317, 0.0005487476009875536, 0.00048447182052768767, 0.00045919156400486827, 0.00032466487027704716, 0.00041122076800093055, 0.00042719123302958906, 0.0005551318172365427, 0.00053524336544796824, 0.00037940405309200287, 0.00045449455501511693, } };
const TfArray<16, int> quant26_zero = { 16, { 0,0,0,0,0,0,0,0,0,0,0,0,0,0,0,0 } };
const TfLiteAffineQuantization quant26 = { (TfLiteFloatArray*)&quant26_scale, (TfLiteIntArray*)&quant26_zero, 0 };
const ALIGN(16) int8_t tensor_data27[96*1*1*16] = { 
  /* [0][0][][] */ 5,1,13,-21,50,-127,-8,-43,24,30,-4,35,-56,25,25,-12, 
  /* [1][0][][] */ 10,37,-15,64,127,23,33,-27,49,55,-3,66,53,-20,-76,58, 
  /* [2][0][][] */ 49,6,-19,59,38,63,30,-38,-70,127,1,8,4,40,-113,38, 
  /* [3][0][][] */ -127,25,-40,-35,-40,-88,-3,25,-19,9,-86,-80,93,-1,-43,-47, 
  /* [4][0][][] */ 127,-1,7,6,20,17,-34,-1,16,-8,12,23,-15,-5,5,8, 
  /* [5][0][][] */ 10,24,8,3,127,31,-5,-26,72,-42,-31,-26,2,3,-113,9, 
  /* [6][0][][] */ 1,16,-68,-6,-6,-17,4,12,-33,17,-127,-42,10,-52,-5,-42, 
  /* [7][0][][] */ -57,-22,0,23,89,52,-34,22,-38,-26,-25,96,-127,-43,-17,-35, 
  /* [8][0][][] */ 24,-41,127,8,-1,-50,40,39,-9,91,-72,-27,-25,-16,-17,16, 
  /* [9][0][][] */ -20,-8,45,-61,-127,-2,-52,36,-37,-115,-24,-71,-60,-9,-14,33, 
  /* [10][0][][] */ -10,-21,-34,-3,-29,127,28,45,63,93,42,-68,52,-105,100,-38, 
  /* [11][0][][] */ 5,-53,5,16,2,-73,-7,-23,-127,23,13,10,-32,41,85,-48, 
  /* [12][0][][] */ 11,103,55,-47,-45,127,48,18,40,119,-23,59,-87,-9,0,113, 
  /* [13][0][][] */ 127,-17,-5,2,12,13,26,11,5,-8,-36,-21,0,-6,12,19, 
  /* [14][0][][] */ 37,54,127,62,-27,3,94,10,58,-23,98,-33,53,73,77,16, 
  /* [15][0][][] */ 14,25,-104,-5,-11,13,8,27,-22,34,-127,4,-40,-48,-27,-53, 
  /* [16][0][][] */ 1,-79,9,35,127,32,-72,-75,-14,-53,-31,69,-15,-113,39,-45, 
  /* [17][0][][] */ -51,20,54,-106,-92,127,-72,-110,82,75,-3,-30,-104,51,33,-91, 
  /* [18][0][][] */ -5,-38,5,31,-89,35,67,-127,39,-27,2,-76,-10,0,-19,-61, 
  /* [19][0][][] */ 0,2,34,-127,-59,1,-39,-25,0,-1,-23,87,-19,77,107,-101, 
  /* [20][0][][] */ -8,18,24,-18,26,-63,-47,127,-20,-52,-49,94,8,42,-24,70, 
  /* [21][0][][] */ 12,44,-35,-25,-19,-127,-4,-118,38,65,58,36,-59,40,-52,-95, 
  /* [22][0][][] */ -1,-1,-15,25,41,6,-4,64,21,64,1,127,76,-17,20,-6, 
  /* [23][0][][] */ 1,46,-19,14,15,1,26,-56,-10,-6,38,-127,-49,-12,20,-33, 
  /* [24][0][][] */ -127,4,-61,40,-6,65,10,-39,-28,33,-95,95,-125,-45,-21,3, 
  /* [25][0][][] */ 0,103,-2,-77,127,25,-31,85,-54,7,7,-39,-24,1,90,107, 
  /* [26][0][][] */ 93,-17,66,-23,53,-20,61,9,41,-127,121,24,21,9,40,29, 
  /* [27][0][][] */ -13,-10,3,49,-53,34,-66,64,-11,127,-31,-14,-64,36,-75,-53, 
  /* [28][0][][] */ -12,127,12,-64,-35,37,20,-12,-9,99,-11,-80,22,73,67,122, 
  /* [29][0][][] */ 1,73,49,-5,37,-70,-15,-32,127,29,-12,-18,-41,-94,-101,84, 
  /* [30][0][][] */ -127,-5,26,-27,21,20,85,7,-2,-13,25,5,-37,-10,9,24, 
  /* [31][0][][] */ -92,39,-28,-70,-127,57,41,-110,44,42,-13,37,-81,49,-42,-62, 
  /* [32][0][][] */ 0,0,0,0,0,0,0,0,0,0,0,0,0,0,0,0, 
  /* [33][0][][] */ -8,-17,-9,8,-127,-33,16,72,-84,3,-3,34,48,47,21,32, 
  /* [34][0][][] */ -127,37,-19,7,15,-41,124,24,-10,-51,-10,-7,37,-7,5,-27, 
  /* [35][0][][] */ -13,28,-22,17,103,105,36,-90,-34,96,14,-23,127,-8,-58,-78, 
  /* [36][0][][] */ -89,25,-107,19,-14,79,-20,-52,-33,0,-109,127,-106,-45,-6,17, 
  /* [37][0][][] */ -15,26,75,-23,-127,-50,-7,32,-71,18,-20,-17,-49,-69,1,74, 
  /* [38][0][][] */ 12,18,0,64,127,-39,48,-63,-43,14,4,-34,120,19,-82,-46, 
  /* [39][0][][] */ 15,-91,-42,34,97,-4,-38,-13,-125,-127,-21,24,5,124,2,-96, 
  /* [40][0][][] */ -1,-23,5,-24,-123,84,-52,75,-27,-127,7,-120,-22,-40,22,40, 
  /* [41][0][][] */ -8,10,12,-6,47,44,62,-127,44,-11,-42,-77,-7,10,-53,-33, 
  /* [42][0][][] */ -4,12,5,-22,0,-28,-127,-4,-6,9,-3,40,67,14,-15,5, 
  /* [43][0][][] */ 24,26,-40,6,-71,-52,9,-49,1,10,6,-96,127,37,28,42, 
  /* [44][0][][] */ 117,56,-94,-26,15,81,78,-5,-16,11,-127,37,-120,-58,58,5, 
  /* [45][0][][] */ -127,11,23,16,62,9,104,39,13,-59,-6,-6,-35,-30,69,-18, 
  /* [46][0][][] */ -5,-4,16,-21,-125,-127,-21,26,13,47,0,7,-59,-26,72,25, 
  /* [47][0][][] */ -8,36,-17,-20,-53,31,-9,-127,-1,-31,-20,64,-24,-9,29,29, 
  /* [48][0][][] */ -127,-2,46,1,5,4,81,20,10,-16,58,40,-19,37,-7,34, 
  /* [49][0][][] */ 13,22,19,19,127,-31,-6,63,-71,-6,-6,0,-17,-24,12,86, 
  /* [50][0][][] */ -48,-70,111,3,24,-74,29,36,54,-47,127,-48,90,53,-7,-21, 
  /* [51][0][][] */ -11,-116,-17,24,-12,7,-56,36,-127,-20,11,49,-24,90,100,-109, 
  /* [52][0][][] */ -6,5,8,-17,1,-35,-50,113,-16,12,-14,127,64,45,-50,50, 
  /* [53][0][][] */ -2,-60,-3,16,-4,-21,4,-16,-127,-1,19,-4,-17,43,96,-51, 
  /* [54][0][][] */ 2,-10,-3,36,12,17,-13,42,92,-21,17,21,15,-127,-34,15, 
  /* [55][0][][] */ -23,18,14,51,-62,-13,-54,-99,-35,-37,-47,127,51,24,-41,82, 
  /* [56][0][][] */ 29,33,21,-106,9,-15,2,-11,42,-13,-15,-103,127,-27,33,16, 
  /* [57][0][][] */ 16,88,-4,-127,30,-26,-15,28,-79,21,78,55,0,-43,-31,-23, 
  /* [58][0][][] */ 13,15,-21,21,127,12,-34,-10,88,-92,-11,-14,-2,-10,-125,10, 
  /* [59][0][][] */ 127,21,47,10,-11,-18,85,22,12,-9,31,-29,33,9,4,18, 
  /* [60][0][][] */ 127,50,-35,3,-28,-25,80,22,-19,-1,-27,-6,35,7,-20,7, 
  /* [61][0][][] */ 11,-26,52,-127,47,38,8,71,11,-74,-56,83,8,-105,105,18, 
  /* [62][0][][] */ 13,0,-31,-13,127,-45,28,-11,33,24,9,78,3,49,0,-22, 
  /* [63][0][][] */ -14,-127,-29,-70,22,30,113,10,9,21,17,11,-72,15,-21,114, 
  /* [64][0][][] */ 127,44,26,-8,-24,28,85,15,5,12,4,-23,-15,21,0,32, 
  /* [65][0][][] */ -127,-85,-32,-55,27,-82,53,19,24,-50,23,-89,91,13,-9,22, 
  /* [66][0][][] */ 12,14,-33,10,-52,-127,-52,58,122,-11,49,26,-85,-98,20,-20, 
  /* [67][0][][] */ -13,47,23,-1,-123,-15,-6,27,102,44,18,-37,-25,-127,11,48, 
  /* [68][0][][] */ 55,14,-43,56,-12,-127,92,52,-25,52,21,-81,111,75,-82,10, 
  /* [69][0][][] */ -127,-8,1,-6,20,-15,5,-4,17,-18,3,2,16,-18,-4,-3, 
  /* [70][0][][] */ -7,-24,37,62,-127,10,-6,22,-52,-35,-10,-68,-14,-48,-5,53, 
  /* [71][0][][] */ 2,23,26,-36,127,73,31,-39,-44,81,-13,53,74,-13,-7,-39, 
  /* [72][0][][] */ -80,-2,22,-17,6,-7,127,26,-6,-29,29,26,-28,5,-11,28, 
  /* [73][0][][] */ 10,-28,31,-127,-31,51,42,-124,115,-9,-17,-89,-10,-5,104,-72, 
  /* [74][0][][] */ 127,-29,74,-10,55,-3,108,25,46,-72,93,-11,-19,-7,83,22, 
  /* [75][0][][] */ 21,-27,-24,28,95,51,60,-97,-103,52,15,29,54,127,13,-67, 
  /* [76][0][][] */ -12,75,2,1,-127,-46,30,46,107,48,23,-44,-7,-112,-37,125, 
  /* [77][0][][] */ 40,-127,-42,65,74,-59,21,86,35,-42,-1,-115,45,-46,-21,-90, 
  /* [78][0][][] */ -11,-7,-39,-12,-127,-38,-20,96,11,57,54,25,-3,-79,95,28, 
  /* [79][0][][] */ 10,-108,-32,97,127,3,-37,36,68,-64,-26,-84,-53,-33,114,-14, 
  /* [80][0][][] */ -9,-7,26,-20,-127,73,-18,45,3,-94,5,-77,-26,21,-31,1, 
  /* [81][0][][] */ 7,-127,-35,50,-15,13,-19,60,-100,-31,41,66,23,-36,121,-90, 
  /* [82][0][][] */ 10,-56,127,-75,-2,53,-41,-20,-90,11,-90,-21,74,36,31,-6, 
  /* [83][0][][] */ 9,76,-37,11,-68,43,79,7,-127,44,10,77,13,71,-17,23, 
  /* [84][0][][] */ 5,51,21,-127,-58,-14,1,-20,27,15,17,31,-8,41,-7,-35, 
  /* [85][0][][] */ -22,22,-39,-6,-127,-58,62,77,7,-8,14,-12,2,7,-26,19, 
  /* [86][0][][] */ 22,10,-66,30,-125,-87,96,81,-7,1,58,44,85,57,-127,-30, 
  /* [87][0][][] */ -16,26,22,-96,13,9,-61,-9,127,12,-28,81,-58,-35,-6,-40, 
  /* [88][0][][] */ 127,-36,-39,-78,-26,18,-63,0,-13,46,30,55,-9,14,-39,58, 
  /* [89][0][][] */ 1,64,1,21,19,-29,48,-26,-3,44,-55,50,32,127,-66,32, 
  /* [90][0][][] */ 13,26,-4,47,127,-20,-9,-30,124,-23,-15,-1,-11,-3,-76,11, 
  /* [91][0][][] */ -18,33,0,28,24,1,127,20,-7,-55,-22,1,-23,-23,38,3, 
  /* [92][0][][] */ -2,63,37,31,53,-12,-10,-21,127,8,-8,-65,-31,-116,-80,81, 
  /* [93][0][][] */ -127,11,13,-11,-20,0,-24,-13,0,17,20,42,7,34,-30,8, 
  /* [94][0][][] */ 21,-15,0,-69,8,-109,-43,16,11,-85,15,-67,127,-42,40,-30, 
  /* [95][0][][] */ -13,-47,3,-29,-11,-124,-45,70,26,-21,32,-45,127,-50,23,-23, 
};
const TfArray<4, int> tensor_dimension27 = { 4, { 96,1,1,16 } };
const TfArray<96, float> quant27_scale = { 96, { 0.00053466856479644775, 0.00048772519221529365, 0.00065779790747910738, 0.00042640900937840343, 0.00082195730647072196, 0.0002736247843131423, 0.00058296334464102983, 0.00056744407629594207, 0.00038152729393914342, 0.00054003892000764608, 0.000479255395475775, 0.00081320008030161262, 0.00015129291568882763, 0.0009551010443829, 0.00088436336955055594, 0.001622210256755352, 0.00075763009954243898, 0.00025439623277634382, 0.00038177135866135359, 0.00037792779039591551, 0.00059103721287101507, 0.00047340898890979588, 0.000960814009886235, 0.001369463512673974, 0.0006913358811289072, 0.00034003821201622486, 0.0010115226032212377, 0.00082158175064250827, 0.00055944861378520727, 0.00058519537560641766, 0.0011808717390522361, 0.0005125819006934762, 9.7937311593909726e-09, 0.00084432697622105479, 0.00051892135525122285, 0.00061156257288530469, 0.00096712756203487515, 0.00062836444703862071, 0.00078486109850928187, 0.00062611477915197611, 0.00035488713183440268, 0.00077332701766863465, 0.0016823161859065294, 0.00061747815925627947, 0.00089710461907088757, 0.00041015850729309022, 0.00093439529882743955, 0.0013283105799928308, 0.00065708288457244635, 0.00086491904221475124, 0.00062042794888839126, 0.00066569715272635221, 0.00059272011276334524, 0.00084915990009903908, 0.0014879889786243439, 0.0012742955004796386, 0.00045375162153504789, 0.0021666227839887142, 0.00093280599685385823, 0.00067043496528640389, 0.0010618912056088448, 0.0010708213085308671, 0.0014064834685996175, 0.00075987621676176786, 0.00061691104201599956, 0.00048671721015125513, 0.00048137304838746786, 0.00059220578987151384, 0.00018091143283527344, 0.0014637784333899617, 0.00071959372144192457, 0.00033932676888071001, 0.00095790717750787735, 0.00070547388168051839, 0.0010549873113632202, 0.0006052121170796454, 0.00047321463353000581, 0.00090555619681254029, 0.0010868485551327467, 0.0011545391753315926, 0.00079208065290004015, 0.0010253471555188298, 0.00021877173276152462, 0.00048231286928057671, 0.0016922598006203771, 0.00041326571954414248, 0.00056701060384511948, 0.00045078695984557271, 0.00048829795559868217, 0.0008855746709741652, 0.00036386039573699236, 0.00098711834289133549, 0.0019016525475308299, 0.00062703486764803529, 0.00033784759580157697, 0.00064108718652278185, } };
const TfArray<96, int> quant27_zero = { 96, { 0,0,0,0,0,0,0,0,0,0,0,0,0,0,0,0,0,0,0,0,0,0,0,0,0,0,0,0,0,0,0,0,0,0,0,0,0,0,0,0,0,0,0,0,0,0,0,0,0,0,0,0,0,0,0,0,0,0,0,0,0,0,0,0,0,0,0,0,0,0,0,0,0,0,0,0,0,0,0,0,0,0,0,0,0,0,0,0,0,0,0,0,0,0,0,0 } };
const TfLiteAffineQuantization quant27 = { (TfLiteFloatArray*)&quant27_scale, (TfLiteIntArray*)&quant27_zero, 0 };
const ALIGN(16) int32_t tensor_data28[96] = { 14116, 18381, 8919, 19709, 13219, 43937, 15725, 16480, 18397, 13487, 10710, 339, 91570, 6343, 9934, -462, 573, 41896, 19020, 27426, 11604, 25881, 7629, -1760, -7418, 23507, -637, 7172, 9175, -423, -301, 15786, -1073741824, 6535, 12435, 8239, 1095, 15490, 4406, 7692, 22856, 11918, 821, 14174, -661, 13450, 7149, 1745, 9453, 10171, 10035, 10817, 17297, -325, -1723, -1442, 46893, 2349, -4527, 11076, -92, -12598, 1189, -1551, 21255, 18242, 20507, 10890, 50550, 8007, 5862, 29801, 4599, -8876, -2541, 16661, 9635, -468, 9558, -8425, 6745, -2611, 61397, 17829, 1115, 17835, -2566, 22975, 18475, 12380, 34475, 3521, -268, 14287, 30659, 7562, };
const TfArray<1, int> tensor_dimension28 = { 1, { 96 } };
const TfArray<96, float> quant28_scale = { 96, { 0.00010564205149421468, 9.6366784418933094e-05, 0.00012997045996598899, 8.4251674707047641e-05, 0.00016240576223935932, 5.4063930292613804e-05, 0.00011518433893797919, 0.00011211797391297296, 7.5383759394753724e-05, 0.00010670314804883674, 9.4693285063840449e-05, 0.00016067546675913036, 2.9893086320953444e-05, 0.0001887128601083532, 0.00017473621119279414, 0.00032052307506091893, 0.00014969572657719254, 5.0264672609046102e-05, 7.5431984441820532e-05, 7.4672556365840137e-05, 0.00011677960719680414, 9.3538124929182231e-05, 0.00018984165217261761, 0.00027058433624915779, 0.00013659703836310655, 6.7186170781496912e-05, 0.00019986086408607662, 0.00016233156202360988, 0.00011053819616790861, 0.00011562534928089008, 0.00023332158161792904, 0.00010127807763637975, 1.9350863134093288e-09, 0.00016682565910741687, 0.00010253064829157665, 0.00012083508772775531, 0.00019108911510556936, 0.00012415487435646355, 0.00015507613716181368, 0.00012371037155389786, 7.0120084274094552e-05, 0.0001527971908217296, 0.00033239906770177186, 0.00012200391938677058, 0.00017725367797538638, 8.1040830991696566e-05, 0.00018462173466105014, 0.00026245316257700324, 0.00012982918997295201, 0.00017089431639760733, 0.00012258674541953951, 0.00013153122563380748, 0.00011711211845977232, 0.00016778057033661753, 0.00029400308267213404, 0.00025178064242936671, 8.9654145995154977e-05, 0.00042809039587154984, 0.00018430770433042198, 0.00013246735034044832, 0.00020981290435884148, 0.00021157735318411142, 0.00027789888554252684, 0.00015013951633591205, 0.00012189186236355454, 9.6167619631160051e-05, 9.5111703558359295e-05, 0.00011701049515977502, 3.5745237255468965e-05, 0.00028921946068294346, 0.00014218033174984157, 6.7045599280390888e-05, 0.0001892673026304692, 0.00013939048221800476, 0.00020844880782533437, 0.00011958034156123176, 9.3499729700852185e-05, 0.00017892358300741762, 0.0002147440827684477, 0.00022811867529526353, 0.00015650260320398957, 0.0002025923749897629, 4.3225834815530106e-05, 9.529739327263087e-05, 0.00033436377998441458, 8.165476901922375e-05, 0.0001120323286158964, 8.9068373199552298e-05, 9.6479954663664103e-05, 0.00017497554654255509, 7.1893060521688312e-05, 0.00019503897055983543, 0.00037573647568933666, 0.00012389216863084584, 6.6753338614944369e-05, 0.00012666868860833347, } };
const TfArray<96, int> quant28_zero = { 96, { 0,0,0,0,0,0,0,0,0,0,0,0,0,0,0,0,0,0,0,0,0,0,0,0,0,0,0,0,0,0,0,0,0,0,0,0,0,0,0,0,0,0,0,0,0,0,0,0,0,0,0,0,0,0,0,0,0,0,0,0,0,0,0,0,0,0,0,0,0,0,0,0,0,0,0,0,0,0,0,0,0,0,0,0,0,0,0,0,0,0,0,0,0,0,0,0 } };
const TfLiteAffineQuantization quant28 = { (TfLiteFloatArray*)&quant28_scale, (TfLiteIntArray*)&quant28_zero, 0 };
const ALIGN(16) int8_t tensor_data29[1*3*3*96] = { 
